{"learner":{"attributes":{"scikit_learn":"{\"_estimator_type\": \"classifier\"}"},"feature_names":["day","hour","volume"],"feature_types":["int","int","float"],"gradient_booster":{"model":{"cats":{"enc":[],"feature_segments":[],"sorted_idx":[]},"gbtree_model_param":{"num_parallel_tree":"1","num_trees":"100"},"iteration_indptr":[0,1,2,3,4,5,6,7,8,9,10,11,12,13,14,15,16,17,18,19,20,21,22,23,24,25,26,27,28,29,30,31,32,33,34,35,36,37,38,39,40,41,42,43,44,45,46,47,48,49,50,51,52,53,54,55,56,57,58,59,60,61,62,63,64,65,66,67,68,69,70,71,72,73,74,75,76,77,78,79,80,81,82,83,84,85,86,87,88,89,90,91,92,93,94,95,96,97,98,99,100],"tree_info":[0,0,0,0,0,0,0,0,0,0,0,0,0,0,0,0,0,0,0,0,0,0,0,0,0,0,0,0,0,0,0,0,0,0,0,0,0,0,0,0,0,0,0,0,0,0,0,0,0,0,0,0,0,0,0,0,0,0,0,0,0,0,0,0,0,0,0,0,0,0,0,0,0,0,0,0,0,0,0,0,0,0,0,0,0,0,0,0,0,0,0,0,0,0,0,0,0,0,0,0],"trees":[{"base_weights":[-1.0239913E-8,1.0801796E-1,-3.036472E-1,1.9896907E-1,4.0025063E-2,-4.847724E-1,-2.2601375E-2,3.752961E-1,1.5855388E-1,1.4034094E-1,-1.2067241E-1,-8.0594784E-1,-2.8680518E-1,-2.1106488E-1,1.11630246E-1,4.3657288E-1,2.8816592E-2,1.18294284E-1,3.1248468E-1,-3.755955E-1,1.8304007E-1,-1.5718852E-1,1.21815376E-1,-1.8670801E0,-7.313815E-1,-4.0290195E-1,9.336707E-2,-3.00281E-1,-3.457273E-3,-4.8865285E-2,2.1030328E-1,1.745466E-2,3.5429E-2,6.289481E-2,-1.1970462E-2,1.0545108E-2,6.1403814E-4,2.2940181E-2,8.105893E-3,-2.9784082E-2,-1.411149E-3,5.4587717E-3,1.612386E-2,-1.211741E-2,-3.8220945E-3,1.6448924E-2,-4.880842E-3,-1.70326E-2,-9.751553E-2,-1.9035539E-2,-4.181107E-2,-3.971679E-2,-1.6661627E-2,-1.3669488E-2,1.6439915E-2,-4.7183936E-3,-2.4269314E-2,-7.0794434E-3,9.889516E-3,2.1252283E-3,-2.160387E-2,3.4172684E-2,9.178454E-3],"categories":[],"categories_nodes":[],"categories_segments":[],"categories_sizes":[],"default_left":[0,0,0,0,0,0,0,0,0,0,0,0,0,0,0,0,0,0,0,0,0,0,0,0,0,0,0,0,0,0,0,0,0,0,0,0,0,0,0,0,0,0,0,0,0,0,0,0,0,0,0,0,0,0,0,0,0,0,0,0,0,0,0],"id":0,"left_children":[1,3,5,7,9,11,13,15,17,19,21,23,25,27,29,31,33,35,37,39,41,43,45,47,49,51,53,55,57,59,61,-1,-1,-1,-1,-1,-1,-1,-1,-1,-1,-1,-1,-1,-1,-1,-1,-1,-1,-1,-1,-1,-1,-1,-1,-1,-1,-1,-1,-1,-1,-1,-1],"loss_changes":[3.5590576E2,4.948764E1,1.4492554E2,2.4338013E1,7.3867905E1,1.09851654E2,2.8278088E1,1.3525558E1,1.7234238E1,6.221434E1,1.5614367E1,5.083072E1,4.738205E1,8.610449E0,1.0350679E1,1.2643845E1,3.2244976E1,2.1701952E1,1.2624447E1,1.6492659E1,2.6805222E1,1.0510273E1,1.0536345E1,4.756363E0,2.2402039E1,2.2149933E1,2.182773E1,1.2348541E1,3.940851E0,8.751087E0,4.991659E0,0E0,0E0,0E0,0E0,0E0,0E0,0E0,0E0,0E0,0E0,0E0,0E0,0E0,0E0,0E0,0E0,0E0,0E0,0E0,0E0,0E0,0E0,0E0,0E0,0E0,0E0,0E0,0E0,0E0,0E0,0E0,0E0],"parents":[2147483647,0,0,1,1,2,2,3,3,4,4,5,5,6,6,7,7,8,8,9,9,10,10,11,11,12,12,13,13,14,14,15,15,16,16,17,17,18,18,19,19,20,20,21,21,22,22,23,23,24,24,25,25,26,26,27,27,28,28,29,29,30,30],"right_children":[2,4,6,8,10,12,14,16,18,20,22,24,26,28,30,32,34,36,38,40,42,44,46,48,50,52,54,56,58,60,62,-1,-1,-1,-1,-1,-1,-1,-1,-1,-1,-1,-1,-1,-1,-1,-1,-1,-1,-1,-1,-1,-1,-1,-1,-1,-1,-1,-1,-1,-1,-1,-1],"split_conditions":[5E0,1E1,3.2371451E4,2.0119635E4,3E0,9E0,6E0,8E0,4E0,1.7318795E4,1.2445779E5,7.520434E3,2.1E1,1.6E1,1.2E1,6E0,1E0,2E0,5E0,2E0,2E0,4E0,4E0,1E0,2E0,1.0454904E4,1.2973689E4,8E0,6.482416E4,1E1,3.363495E4,1.745466E-2,3.5429E-2,6.289481E-2,-1.1970462E-2,1.0545108E-2,6.1403814E-4,2.2940181E-2,8.105893E-3,-2.9784082E-2,-1.411149E-3,5.4587717E-3,1.612386E-2,-1.211741E-2,-3.8220945E-3,1.6448924E-2,-4.880842E-3,-1.70326E-2,-9.751553E-2,-1.9035539E-2,-4.181107E-2,-3.971679E-2,-1.6661627E-2,-1.3669488E-2,1.6439915E-2,-4.7183936E-3,-2.4269314E-2,-7.0794434E-3,9.889516E-3,2.1252283E-3,-2.160387E-2,3.4172684E-2,9.178454E-3],"split_indices":[0,1,2,2,0,1,0,1,0,2,2,2,1,1,1,1,0,0,1,0,0,0,0,1,1,2,2,1,2,1,2,0,0,0,0,0,0,0,0,0,0,0,0,0,0,0,0,0,0,0,0,0,0,0,0,0,0,0,0,0,0,0,0],"split_type":[0,0,0,0,0,0,0,0,0,0,0,0,0,0,0,0,0,0,0,0,0,0,0,0,0,0,0,0,0,0,0,0,0,0,0,0,0,0,0,0,0,0,0,0,0,0,0,0,0,0,0,0,0,0,0,0,0,0,0,0,0,0,0],"sum_hessian":[1.0849E4,8.002776E3,2.846224E3,3.4225947E3,4.580181E3,1.7303457E3,1.1158785E3,6.3665466E2,2.7859402E3,2.8199473E3,1.7602339E3,6.586701E2,1.0716755E3,4.6393436E2,6.5194415E2,5.4075854E2,9.589611E1,2.2097603E3,5.7617993E2,2.1494585E2,2.6050012E3,1.5301597E3,2.3007419E2,4.166785E1,6.1700226E2,8.2092285E2,2.507527E2,3.2417767E2,1.3975668E2,2.4840634E2,4.035378E2,4.1089484E2,1.2986371E2,1.6517767E1,7.937834E1,1.1789243E3,1.0308358E3,2.9098096E2,2.8519897E2,1.3114255E2,8.38033E1,1.7040762E3,9.009251E2,7.43755E2,7.8640466E2,1.1808883E2,1.1198537E2,2.417851E0,3.925E1,1.4307462E2,4.7392767E2,1.2246404E2,6.984588E2,9.797115E1,1.5278156E2,1.5417809E2,1.6999957E2,8.304974E1,5.6706936E1,2.0129932E2,4.710702E1,2.0267767E1,3.8327005E2],"tree_param":{"num_deleted":"0","num_feature":"3","num_nodes":"63","size_leaf_vector":"1"}},{"base_weights":[-9.629237E-6,1.02637716E-1,-2.8859645E-1,1.8907288E-1,3.8022026E-2,-4.607831E-1,-2.1474455E-2,1.4719377E-1,3.4456328E-1,1.3332535E-1,-1.1464369E-1,-7.1968585E-1,-2.3756517E-1,-2.0058064E-1,1.0608858E-1,2.3340297E-1,5.5961758E-2,1.1970377E0,2.9512167E-1,-3.5014477E-1,1.7449087E-1,-1.4934236E-1,1.1577924E-1,-1.5699189E0,-6.648074E-1,-3.029155E-1,3.9142144E-1,-2.8537947E-1,-3.2645762E-3,-4.650135E-2,1.9990242E-1,-7.2871777E-3,1.35379005E-2,5.6560426E-3,-9.66874E-3,6.9039464E-2,4.3922823E-2,2.709659E-2,1.12984795E-2,-3.831367E-2,-1.040907E-2,5.1724887E-3,1.541622E-2,-1.1512775E-2,-3.6312372E-3,1.5634455E-2,-4.6389857E-3,-8.901883E-2,5.724505E-3,-1.8092018E-2,-3.6757525E-2,-2.9613316E-2,-1.0838532E-2,-4.53067E-3,3.3994373E-2,-4.4840216E-3,-2.3066383E-2,-6.729778E-3,9.4038425E-3,2.019494E-3,-2.0548517E-2,3.255361E-2,8.720911E-3],"categories":[],"categories_nodes":[],"categories_segments":[],"categories_sizes":[],"default_left":[0,0,0,0,0,0,0,0,0,0,0,0,0,0,0,0,0,0,0,0,0,0,0,0,0,0,0,0,0,0,0,0,0,0,0,0,0,0,0,0,0,0,0,0,0,0,0,0,0,0,0,0,0,0,0,0,0,0,0,0,0,0,0],"id":1,"left_children":[1,3,5,7,9,11,13,15,17,19,21,23,25,27,29,31,33,35,37,39,41,43,45,47,49,51,53,55,57,59,61,-1,-1,-1,-1,-1,-1,-1,-1,-1,-1,-1,-1,-1,-1,-1,-1,-1,-1,-1,-1,-1,-1,-1,-1,-1,-1,-1,-1,-1,-1,-1,-1],"loss_changes":[3.2141254E2,4.469272E1,1.3092596E2,2.2241951E1,6.666739E1,9.986194E1,2.5537874E1,2.1212852E1,3.023159E1,5.6202415E1,1.4098694E1,3.6326324E1,3.83873E1,7.777954E0,9.355939E0,1.9687355E1,1.872747E1,1.0965614E0,1.1606388E1,1.2935646E1,2.468975E1,9.487709E0,9.518251E0,1.7157997E1,1.5804749E1,2.0907959E1,1.2306706E1,1.1154541E1,3.5623362E0,7.914907E0,4.5375347E0,0E0,0E0,0E0,0E0,0E0,0E0,0E0,0E0,0E0,0E0,0E0,0E0,0E0,0E0,0E0,0E0,0E0,0E0,0E0,0E0,0E0,0E0,0E0,0E0,0E0,0E0,0E0,0E0,0E0,0E0,0E0,0E0],"parents":[2147483647,0,0,1,1,2,2,3,3,4,4,5,5,6,6,7,7,8,8,9,9,10,10,11,11,12,12,13,13,14,14,15,15,16,16,17,17,18,18,19,19,20,20,21,21,22,22,23,23,24,24,25,25,26,26,27,27,28,28,29,29,30,30],"right_children":[2,4,6,8,10,12,14,16,18,20,22,24,26,28,30,32,34,36,38,40,42,44,46,48,50,52,54,56,58,60,62,-1,-1,-1,-1,-1,-1,-1,-1,-1,-1,-1,-1,-1,-1,-1,-1,-1,-1,-1,-1,-1,-1,-1,-1,-1,-1,-1,-1,-1,-1,-1,-1],"split_conditions":[5E0,1E1,3.2371451E4,4E0,3E0,1.1E1,6E0,2E0,1.2164943E4,1.7522887E4,1.2445779E5,7.520434E3,2.3E1,1.6E1,1.2E1,1E0,8E0,1.094433E4,2E0,1.1682769E4,2E0,4E0,4E0,9E0,2E0,1.1428554E4,1.5324474E4,8E0,6.482416E4,1E1,3.363495E4,-7.2871777E-3,1.35379005E-2,5.6560426E-3,-9.66874E-3,6.9039464E-2,4.3922823E-2,2.709659E-2,1.12984795E-2,-3.831367E-2,-1.040907E-2,5.1724887E-3,1.541622E-2,-1.1512775E-2,-3.6312372E-3,1.5634455E-2,-4.6389857E-3,-8.901883E-2,5.724505E-3,-1.8092018E-2,-3.6757525E-2,-2.9613316E-2,-1.0838532E-2,-4.53067E-3,3.3994373E-2,-4.4840216E-3,-2.3066383E-2,-6.729778E-3,9.4038425E-3,2.019494E-3,-2.0548517E-2,3.255361E-2,8.720911E-3],"split_indices":[0,1,2,0,0,1,0,0,2,2,2,2,1,1,1,1,1,2,1,2,0,0,0,1,1,2,2,1,2,1,2,0,0,0,0,0,0,0,0,0,0,0,0,0,0,0,0,0,0,0,0,0,0,0,0,0,0,0,0,0,0,0,0],"split_type":[0,0,0,0,0,0,0,0,0,0,0,0,0,0,0,0,0,0,0,0,0,0,0,0,0,0,0,0,0,0,0,0,0,0,0,0,0,0,0,0,0,0,0,0,0,0,0,0,0,0,0,0,0,0,0,0,0,0,0,0,0,0,0],"sum_hessian":[1.0848221E4,8.0024697E3,2.8457512E3,3.4224277E3,4.580042E3,1.7299207E3,1.1158306E3,2.6977688E3,7.246589E2,2.819847E3,1.7601951E3,7.9990936E2,9.300113E2,4.6390604E2,6.5192444E2,1.386266E3,1.3115028E3,3.8452244E1,6.862066E2,2.2067021E2,2.5991768E3,1.5301295E3,2.3006554E2,4.6825996E1,7.530834E2,8.4294916E2,8.706216E1,3.241518E2,1.3975426E2,2.4840063E2,4.0352383E2,1.2407069E2,1.2621953E3,1.067362E3,2.441408E2,2.2272001E1,1.6180243E1,1.4868816E2,5.3751843E2,5.5013824E1,1.6565639E2,1.6990599E3,9.0011664E2,7.4372766E2,7.8640186E2,1.1808084E2,1.11984695E2,4.1574516E1,5.251482E0,1.4306166E2,6.1002167E2,1.920385E2,6.5091064E2,3.285178E1,5.421038E1,1.5417723E2,1.6997456E2,8.30487E1,5.670555E1,2.012991E2,4.7101532E1,2.026185E1,3.83262E2],"tree_param":{"num_deleted":"0","num_feature":"3","num_nodes":"63","size_leaf_vector":"1"}},{"base_weights":[-1.3679128E-5,9.7530514E-2,-2.7434868E-1,1.7968497E-1,3.611675E-2,-6.5247476E-1,-1.6212185E-1,3.451217E-1,1.4177728E-1,-2.0479417E-1,9.201039E-2,-1.0147628E0,-4.1877422E-1,-3.6364117E-1,1.0848357E-2,4.023274E-1,2.1726219E-2,1.0504911E-1,2.8223765E-1,-1.1236262E-1,-5.362162E-1,1.8525334E-1,-6.6270135E-2,-2.9046014E-1,-1.1950629E0,-5.237179E-1,-1.5369903E-1,-5.327881E-1,-1.654164E-1,-6.507384E-2,3.5127228E-1,1.5948122E-2,3.308652E-2,5.9374776E-2,-1.1614259E-2,9.443927E-3,4.549083E-4,2.0899925E-2,7.139766E-3,-1.5028981E-2,2.0665114E-3,-7.673227E-2,-1.4712273E-2,6.098342E-3,1.5252768E-2,-9.573827E-3,2.5596046E-3,-2.8072208E-2,2.2483375E-2,-8.8946186E-2,-5.3172406E-2,-1.036702E-2,-3.1907406E-2,-5.8772106E-2,-4.2228955E-3,-3.2393478E-2,-2.0643933E-2,-3.6313029E-3,-3.0554427E-2,-9.668738E-3,6.6697723E-3,3.6562946E-2,1.0090693E-2],"categories":[],"categories_nodes":[],"categories_segments":[],"categories_sizes":[],"default_left":[0,0,0,0,0,0,0,0,0,0,0,0,0,0,0,0,0,0,0,0,0,0,0,0,0,0,0,0,0,0,0,0,0,0,0,0,0,0,0,0,0,0,0,0,0,0,0,0,0,0,0,0,0,0,0,0,0,0,0,0,0,0,0],"id":2,"left_children":[1,3,5,7,9,11,13,15,17,19,21,23,25,27,29,31,33,35,37,39,41,43,45,47,49,51,53,55,57,59,61,-1,-1,-1,-1,-1,-1,-1,-1,-1,-1,-1,-1,-1,-1,-1,-1,-1,-1,-1,-1,-1,-1,-1,-1,-1,-1,-1,-1,-1,-1,-1,-1],"loss_changes":[2.90296E2,4.037056E1,1.2064542E2,2.1418129E1,6.169937E1,5.4686127E1,7.65349E1,1.1783783E1,1.43461E1,2.637471E1,5.489545E1,3.289325E1,1.0973816E1,3.391469E1,3.0584154E1,1.1500374E1,2.8959455E1,1.7779215E1,1.0863869E1,1.9567905E1,4.4947765E1,1.7707497E1,2.0295502E1,1.0692516E1,1.37447815E1,1.0158829E1,7.974273E0,7.277298E0,1.9325043E1,2.4666342E1,1.2107061E1,0E0,0E0,0E0,0E0,0E0,0E0,0E0,0E0,0E0,0E0,0E0,0E0,0E0,0E0,0E0,0E0,0E0,0E0,0E0,0E0,0E0,0E0,0E0,0E0,0E0,0E0,0E0,0E0,0E0,0E0,0E0,0E0],"parents":[2147483647,0,0,1,1,2,2,3,3,4,4,5,5,6,6,7,7,8,8,9,9,10,10,11,11,12,12,13,13,14,14,15,15,16,16,17,17,18,18,19,19,20,20,21,21,22,22,23,23,24,24,25,25,26,26,27,27,28,28,29,29,30,30],"right_children":[2,4,6,8,10,12,14,16,18,20,22,24,26,28,30,32,34,36,38,40,42,44,46,48,50,52,54,56,58,60,62,-1,-1,-1,-1,-1,-1,-1,-1,-1,-1,-1,-1,-1,-1,-1,-1,-1,-1,-1,-1,-1,-1,-1,-1,-1,-1,-1,-1,-1,-1,-1,-1],"split_conditions":[5E0,1E1,1.4411016E4,2.0119635E4,2.4072129E4,9E0,1.2E1,8E0,4E0,4E0,3E0,2E0,2.1E1,3.2371451E4,2.2E1,6E0,1E0,2E0,5E0,2E0,1.3172458E4,2E0,4E0,1.2601072E4,7.520434E3,1.2E1,5.417048E3,6E0,1E1,4.576336E4,2.3282469E4,1.5948122E-2,3.308652E-2,5.9374776E-2,-1.1614259E-2,9.443927E-3,4.549083E-4,2.0899925E-2,7.139766E-3,-1.5028981E-2,2.0665114E-3,-7.673227E-2,-1.4712273E-2,6.098342E-3,1.5252768E-2,-9.573827E-3,2.5596046E-3,-2.8072208E-2,2.2483375E-2,-8.8946186E-2,-5.3172406E-2,-1.036702E-2,-3.1907406E-2,-5.8772106E-2,-4.2228955E-3,-3.2393478E-2,-2.0643933E-2,-3.6313029E-3,-3.0554427E-2,-9.668738E-3,6.6697723E-3,3.6562946E-2,1.0090693E-2],"split_indices":[0,1,2,2,2,1,1,1,0,0,0,1,1,2,1,1,0,0,1,0,2,0,0,2,2,1,2,0,1,2,2,0,0,0,0,0,0,0,0,0,0,0,0,0,0,0,0,0,0,0,0,0,0,0,0,0,0,0,0,0,0,0,0],"split_type":[0,0,0,0,0,0,0,0,0,0,0,0,0,0,0,0,0,0,0,0,0,0,0,0,0,0,0,0,0,0,0,0,0,0,0,0,0,0,0,0,0,0,0,0,0,0,0,0,0,0,0,0,0,0,0,0,0,0,0,0,0,0,0],"sum_hessian":[1.0846219E4,8.0017227E3,2.8444958E3,3.4220503E3,4.5796724E3,6.499166E2,2.1945793E3,6.364315E2,2.7856187E3,8.6193304E2,3.7177395E3,2.5353644E2,3.963802E2,1.01312885E3,1.1814504E3,5.405663E2,9.5865265E1,2.2095933E3,5.760256E2,6.7501465E2,1.8691838E2,2.339419E3,1.3783206E3,5.10538E1,2.0248265E2,2.83261E2,1.13119194E2,5.457488E2,4.673801E2,9.6667004E2,2.1478033E2,4.107819E2,1.2978436E2,1.6493666E1,7.9371605E1,1.1787697E3,1.0308235E3,2.9085345E2,2.8517215E2,3.0299814E2,3.720165E2,3.5420914E1,1.5149747E2,1.5320942E3,8.0732465E2,6.668624E2,7.114582E2,3.7547794E1,1.3506005E1,3.494514E1,1.675375E2,7.598609E1,2.0727492E2,6.165349E0,1.0695384E2,2.7623407E2,2.695147E2,3.8780154E2,7.957856E1,5.871387E2,3.795314E2,5.953201E1,1.5524832E2],"tree_param":{"num_deleted":"0","num_feature":"3","num_nodes":"63","size_leaf_vector":"1"}},{"base_weights":[-3.9136234E-5,9.26735E-2,-2.6092225E-1,1.7077444E-1,3.4294832E-2,-6.213496E-1,-1.5409365E-1,3.281895E-1,1.3471875E-1,-1.9470637E-1,8.742265E-2,-9.6796685E-1,-3.9836752E-1,-3.4576833E-1,1.0344765E-2,3.824928E-1,2.1159671E-2,9.980818E-2,2.682608E-1,-1.06771626E-1,-5.1011515E-1,1.7602354E-1,-6.296415E-2,-2.762332E-1,-1.1407498E0,-4.981099E-1,-1.465935E-1,-5.067718E-1,-1.5724681E-1,-6.182823E-2,3.3404177E-1,1.5157376E-2,3.1478763E-2,5.6747854E-2,-1.1041618E-2,8.9732995E-3,4.3217503E-4,1.9869437E-2,6.784588E-3,-2.2147943E-3,-2.7747879E-2,-7.312824E-2,-1.3983019E-2,5.3700986E-3,1.3981829E-2,-9.0966625E-3,2.4317873E-3,-2.6731674E-2,2.1430725E-2,-8.548885E-2,-5.0673425E-2,-2.1683905E-2,-5.131349E-2,-5.6343395E-2,-4.013963E-3,-3.0819772E-2,-1.9630494E-2,-3.4502544E-3,-2.9072389E-2,-1.1778779E-2,3.918664E-3,2.0594694E-2,-1.693167E-2],"categories":[],"categories_nodes":[],"categories_segments":[],"categories_sizes":[],"default_left":[0,0,0,0,0,0,0,0,0,0,0,0,0,0,0,0,0,0,0,0,0,0,0,0,0,0,0,0,0,0,0,0,0,0,0,0,0,0,0,0,0,0,0,0,0,0,0,0,0,0,0,0,0,0,0,0,0,0,0,0,0,0,0],"id":3,"left_children":[1,3,5,7,9,11,13,15,17,19,21,23,25,27,29,31,33,35,37,39,41,43,45,47,49,51,53,55,57,59,61,-1,-1,-1,-1,-1,-1,-1,-1,-1,-1,-1,-1,-1,-1,-1,-1,-1,-1,-1,-1,-1,-1,-1,-1,-1,-1,-1,-1,-1,-1,-1,-1],"loss_changes":[2.6231442E2,3.6476837E1,1.09394226E2,1.9380318E1,5.574112E1,4.983728E1,6.918082E1,1.0614296E1,1.2962982E1,2.3875809E1,4.955631E1,3.000467E1,9.899746E0,3.0682632E1,2.7641832E1,1.0421295E1,2.6343153E1,1.6050636E1,9.820736E0,1.8903E1,4.0821144E1,1.6608383E1,1.8321297E1,9.703737E0,1.294516E1,9.220299E0,7.326746E0,6.5935516E0,1.7489487E1,2.3588741E1,1.1435913E1,0E0,0E0,0E0,0E0,0E0,0E0,0E0,0E0,0E0,0E0,0E0,0E0,0E0,0E0,0E0,0E0,0E0,0E0,0E0,0E0,0E0,0E0,0E0,0E0,0E0,0E0,0E0,0E0,0E0,0E0,0E0,0E0],"parents":[2147483647,0,0,1,1,2,2,3,3,4,4,5,5,6,6,7,7,8,8,9,9,10,10,11,11,12,12,13,13,14,14,15,15,16,16,17,17,18,18,19,19,20,20,21,21,22,22,23,23,24,24,25,25,26,26,27,27,28,28,29,29,30,30],"right_children":[2,4,6,8,10,12,14,16,18,20,22,24,26,28,30,32,34,36,38,40,42,44,46,48,50,52,54,56,58,60,62,-1,-1,-1,-1,-1,-1,-1,-1,-1,-1,-1,-1,-1,-1,-1,-1,-1,-1,-1,-1,-1,-1,-1,-1,-1,-1,-1,-1,-1,-1,-1,-1],"split_conditions":[5E0,1E1,1.4411016E4,2.0119635E4,2.4072129E4,9E0,1.2E1,8E0,4E0,4E0,3E0,2E0,2.1E1,3.2371451E4,2.2E1,6E0,1E0,2E0,5E0,2.2492145E4,1.3172458E4,7.267864E4,4E0,1.2601072E4,7.520434E3,1.3574525E4,5.417048E3,6E0,1E1,6E0,1.0912678E5,1.5157376E-2,3.1478763E-2,5.6747854E-2,-1.1041618E-2,8.9732995E-3,4.3217503E-4,1.9869437E-2,6.784588E-3,-2.2147943E-3,-2.7747879E-2,-7.312824E-2,-1.3983019E-2,5.3700986E-3,1.3981829E-2,-9.0966625E-3,2.4317873E-3,-2.6731674E-2,2.1430725E-2,-8.548885E-2,-5.0673425E-2,-2.1683905E-2,-5.131349E-2,-5.6343395E-2,-4.013963E-3,-3.0819772E-2,-1.9630494E-2,-3.4502544E-3,-2.9072389E-2,-1.1778779E-2,3.918664E-3,2.0594694E-2,-1.693167E-2],"split_indices":[0,1,2,2,2,1,1,1,0,0,0,1,1,2,1,1,0,0,1,2,2,2,0,2,2,2,2,0,1,0,2,0,0,0,0,0,0,0,0,0,0,0,0,0,0,0,0,0,0,0,0,0,0,0,0,0,0,0,0,0,0,0,0],"split_type":[0,0,0,0,0,0,0,0,0,0,0,0,0,0,0,0,0,0,0,0,0,0,0,0,0,0,0,0,0,0,0,0,0,0,0,0,0,0,0,0,0,0,0,0,0,0,0,0,0,0,0,0,0,0,0,0,0,0,0,0,0,0,0],"sum_hessian":[1.0843191E4,8.0005874E3,2.8426038E3,3.4213994E3,4.579188E3,6.4880273E2,2.1938013E3,6.361108E2,2.7852886E3,8.6180676E2,3.7173813E3,2.5268002E2,3.961227E2,1.0124981E3,1.181303E3,5.4030334E2,9.580743E1,2.209443E3,5.758455E2,6.7496704E2,1.8683969E2,2.3391138E3,1.3782675E3,5.102019E1,2.0165984E2,2.8302255E2,1.1310014E2,5.451955E2,4.673026E2,9.665954E2,2.1470763E2,4.1065662E2,1.2964674E2,1.6441837E1,7.936559E1,1.1786205E3,1.0308228E3,2.9069675E2,2.8514874E2,5.933541E2,8.1612915E1,3.535872E1,1.5148096E2,1.4083912E3,9.3072266E2,6.668033E2,7.114641E2,3.7510254E1,1.3509936E1,3.4589592E1,1.6707024E2,2.5387296E2,2.9149605E1,6.1529384E0,1.06947205E2,2.7588168E2,2.693138E2,3.8779642E2,7.950622E1,4.313529E2,5.352425E2,1.927835E2,2.1924128E1],"tree_param":{"num_deleted":"0","num_feature":"3","num_nodes":"63","size_leaf_vector":"1"}},{"base_weights":[-7.257108E-5,8.806002E-2,-2.4824119E-1,1.6231759E-1,3.25608E-2,-4.4253E-1,-6.553888E-2,3.121554E-1,1.280165E-1,-1.8515913E-1,8.306449E-2,-5.3919053E-1,1.10692404E-1,-2.1333134E-1,4.6608075E-2,3.6370644E-1,2.0612797E-2,1.1549143E-1,4.792364E-1,-1.0148182E-1,-4.8558345E-1,1.6725521E-1,-5.9824653E-2,-1.1707209E0,-4.9013537E-1,-2.2582802E-1,4.1865954E-1,-2.2233833E-1,6.2797464E-2,-1.2228292E-1,1.5713423E-1,1.44073535E-2,2.9963056E-2,5.431641E-2,-1.0497837E-2,-1.7504023E-2,6.2272237E-3,-1.861988E-3,3.1707462E-2,-1.3999692E-2,2.2120157E-3,-6.987841E-2,-1.3291215E-2,5.3559053E-3,1.4057531E-2,-8.643639E-3,2.3103547E-3,-7.924575E-2,-3.7345655E-2,-3.3243913E-2,-1.8454831E-2,-2.5601157E-3,-3.4148976E-2,2.4864025E-2,-9.624524E-3,-1.9648261E-2,-8.063314E-3,-1.1599819E-2,1.0460904E-2,4.9201433E-2,6.856361E-3],"categories":[],"categories_nodes":[],"categories_segments":[],"categories_sizes":[],"default_left":[0,0,0,0,0,0,0,0,0,0,0,0,0,0,0,0,0,0,0,0,0,0,0,0,0,0,0,0,0,0,0,0,0,0,0,0,0,0,0,0,0,0,0,0,0,0,0,0,0,0,0,0,0,0,0,0,0,0,0,0,0],"id":4,"left_children":[1,3,5,7,9,11,13,15,17,19,21,23,25,27,29,31,33,35,37,39,41,43,45,47,49,51,53,55,-1,57,59,-1,-1,-1,-1,-1,-1,-1,-1,-1,-1,-1,-1,-1,-1,-1,-1,-1,-1,-1,-1,-1,-1,-1,-1,-1,-1,-1,-1,-1,-1],"loss_changes":[2.3711508E2,3.296494E1,1.0082095E2,1.754528E1,5.0370632E1,7.36788E1,2.4297752E1,9.5610695E0,1.2199814E1,2.163517E1,4.4736908E1,3.5738068E1,2.140182E1,8.648224E0,1.5587036E1,9.455162E0,2.3994392E1,1.1386803E1,7.673252E0,1.759569E1,3.723739E1,1.5995827E1,1.653987E1,1.3519905E1,2.2795105E1,7.859671E0,5.2707214E0,6.495205E0,0E0,1.2067106E1,8.211844E0,0E0,0E0,0E0,0E0,0E0,0E0,0E0,0E0,0E0,0E0,0E0,0E0,0E0,0E0,0E0,0E0,0E0,0E0,0E0,0E0,0E0,0E0,0E0,0E0,0E0,0E0,0E0,0E0,0E0,0E0],"parents":[2147483647,0,0,1,1,2,2,3,3,4,4,5,5,6,6,7,7,8,8,9,9,10,10,11,11,12,12,13,13,14,14,15,15,16,16,17,17,18,18,19,19,20,20,21,21,22,22,23,23,24,24,25,25,26,26,27,27,29,29,30,30],"right_children":[2,4,6,8,10,12,14,16,18,20,22,24,26,28,30,32,34,36,38,40,42,44,46,48,50,52,54,56,-1,58,60,-1,-1,-1,-1,-1,-1,-1,-1,-1,-1,-1,-1,-1,-1,-1,-1,-1,-1,-1,-1,-1,-1,-1,-1,-1,-1,-1,-1,-1,-1],"split_conditions":[5E0,1E1,2.4972256E4,2.0119635E4,2.4072129E4,2.1E1,1.2E1,8E0,1.9625147E5,4E0,3E0,7.520434E3,1.2973689E4,3.5546366E5,6E0,6E0,1E0,2.089262E4,1E0,2E0,1.3172458E4,2E0,4E0,9E0,8E0,1.094433E4,2.3282469E4,3.2371451E4,6.2797464E-2,7.077163E4,2.5389227E4,1.44073535E-2,2.9963056E-2,5.431641E-2,-1.0497837E-2,-1.7504023E-2,6.2272237E-3,-1.861988E-3,3.1707462E-2,-1.3999692E-2,2.2120157E-3,-6.987841E-2,-1.3291215E-2,5.3559053E-3,1.4057531E-2,-8.643639E-3,2.3103547E-3,-7.924575E-2,-3.7345655E-2,-3.3243913E-2,-1.8454831E-2,-2.5601157E-3,-3.4148976E-2,2.4864025E-2,-9.624524E-3,-1.9648261E-2,-8.063314E-3,-1.1599819E-2,1.0460904E-2,4.9201433E-2,6.856361E-3],"split_indices":[0,1,2,2,2,1,1,1,2,0,0,2,2,2,0,1,0,2,0,0,2,0,0,1,1,2,2,2,0,2,2,0,0,0,0,0,0,0,0,0,0,0,0,0,0,0,0,0,0,0,0,0,0,0,0,0,0,0,0,0,0],"split_type":[0,0,0,0,0,0,0,0,0,0,0,0,0,0,0,0,0,0,0,0,0,0,0,0,0,0,0,0,0,0,0,0,0,0,0,0,0,0,0,0,0,0,0,0,0,0,0,0,0,0,0,0,0,0,0,0,0,0,0,0,0],"sum_hessian":[1.0839161E4,7.9990786E3,2.8400828E3,3.4205208E3,4.5785576E3,1.3757084E3,1.4643744E3,6.3566E2,2.7848608E3,8.615922E2,3.7169653E3,1.1711136E3,2.0459477E2,6.313931E2,8.329813E2,5.3993945E2,9.572051E1,2.690251E3,9.460998E1,6.74939E2,1.8665324E2,2.338779E3,1.3781863E3,8.276329E1,1.0883503E3,9.789267E1,1.067021E2,6.283896E2,3.0034878E0,3.2945175E2,5.035296E2,4.104892E2,1.2945026E2,1.6365597E1,7.935491E1,5.05956E1,2.6396553E3,2.2005083E1,7.26049E1,3.02927E2,3.7201202E2,3.5203156E1,1.5145009E2,1.5318816E3,8.0689746E2,6.667187E2,7.114675E2,4.047082E1,4.2292473E1,4.4353232E2,6.44818E2,7.163939E1,2.6253277E1,9.470515E1,1.1996956E1,1.6420084E2,4.6418878E2,2.4775499E2,8.169675E1,1.075698E1,4.927726E2],"tree_param":{"num_deleted":"0","num_feature":"3","num_nodes":"61","size_leaf_vector":"1"}},{"base_weights":[-8.011465E-5,8.36796E-2,-2.3611435E-1,1.5427564E-1,3.0919831E-2,-5.678478E-1,-1.3815248E-1,1.17224626E-1,2.919626E-1,-4.414537E-1,5.2109335E-2,-8.8941145E-1,-3.6253604E-1,-3.1185162E-1,1.0661901E-2,1.9251588E-1,3.759233E-2,1.0991528E0,2.4533261E-1,-2.4118988E-1,-1.1684113E0,1.3291003E-1,-8.009801E-2,-2.2514705E-1,-1.0567718E0,-4.533458E-1,-1.3371223E-1,-4.573542E-1,-1.4192015E-1,-5.56899E-2,3.0841923E-1,-8.24974E-3,1.13893375E-2,1.2430998E-3,4.79706E-2,6.3713655E-2,3.991063E-2,2.3407808E-2,9.150957E-3,-2.7839327E-2,1.5786074E-2,1.6312784E-2,-7.275529E-2,-2.3155018E-4,9.824963E-3,-5.690077E-3,6.9614886E-3,-2.3541505E-2,2.1983137E-2,-7.981904E-2,-4.692897E-2,-7.5698444E-3,-2.814505E-2,-5.3988058E-2,-3.4983002E-3,-2.810559E-2,-1.7423684E-2,-2.9037113E-3,-2.7286807E-2,-8.613406E-3,6.229128E-3,1.9119618E-2,-1.6482856E-2],"categories":[],"categories_nodes":[],"categories_segments":[],"categories_sizes":[],"default_left":[0,0,0,0,0,0,0,0,0,0,0,0,0,0,0,0,0,0,0,0,0,0,0,0,0,0,0,0,0,0,0,0,0,0,0,0,0,0,0,0,0,0,0,0,0,0,0,0,0,0,0,0,0,0,0,0,0,0,0,0,0,0,0],"id":5,"left_children":[1,3,5,7,9,11,13,15,17,19,21,23,25,27,29,31,33,35,37,39,41,43,45,47,49,51,53,55,57,59,61,-1,-1,-1,-1,-1,-1,-1,-1,-1,-1,-1,-1,-1,-1,-1,-1,-1,-1,-1,-1,-1,-1,-1,-1,-1,-1,-1,-1,-1,-1,-1,-1],"loss_changes":[2.1423996E2,2.9785763E1,9.215779E1,1.741594E1,4.5852055E1,4.2376434E1,5.6677906E1,1.6162945E1,2.700496E1,2.835057E1,4.6831215E1,2.7703476E1,8.176628E0,2.4950127E1,2.3366056E1,1.751519E1,1.5372061E1,1.0533257E0,9.444157E0,2.7498558E1,1.856567E1,2.3796772E1,1.2310522E1,8.67593E0,1.1288147E1,9.288734E0,6.801969E0,6.015663E0,1.5818394E1,2.0350132E1,1.0298548E1,0E0,0E0,0E0,0E0,0E0,0E0,0E0,0E0,0E0,0E0,0E0,0E0,0E0,0E0,0E0,0E0,0E0,0E0,0E0,0E0,0E0,0E0,0E0,0E0,0E0,0E0,0E0,0E0,0E0,0E0,0E0,0E0],"parents":[2147483647,0,0,1,1,2,2,3,3,4,4,5,5,6,6,7,7,8,8,9,9,10,10,11,11,12,12,13,13,14,14,15,15,16,16,17,17,18,18,19,19,20,20,21,21,22,22,23,23,24,24,25,25,26,26,27,27,28,28,29,29,30,30],"right_children":[2,4,6,8,10,12,14,16,18,20,22,24,26,28,30,32,34,36,38,40,42,44,46,48,50,52,54,56,58,60,62,-1,-1,-1,-1,-1,-1,-1,-1,-1,-1,-1,-1,-1,-1,-1,-1,-1,-1,-1,-1,-1,-1,-1,-1,-1,-1,-1,-1,-1,-1,-1,-1],"split_conditions":[5E0,1E1,1.4411016E4,4E0,1.3574525E4,9E0,1.2E1,2E0,1.2164943E4,4E0,3E0,2E0,2.1E1,3.2371451E4,2.2E1,1E0,2.5368784E5,1.094433E4,2E0,3E0,1.1E1,3.553154E4,2.2E1,1.2601072E4,7.520434E3,1.2E1,5.417048E3,6E0,1E1,4.576336E4,1.0912678E5,-8.24974E-3,1.13893375E-2,1.2430998E-3,4.79706E-2,6.3713655E-2,3.991063E-2,2.3407808E-2,9.150957E-3,-2.7839327E-2,1.5786074E-2,1.6312784E-2,-7.275529E-2,-2.3155018E-4,9.824963E-3,-5.690077E-3,6.9614886E-3,-2.3541505E-2,2.1983137E-2,-7.981904E-2,-4.692897E-2,-7.5698444E-3,-2.814505E-2,-5.3988058E-2,-3.4983002E-3,-2.810559E-2,-1.7423684E-2,-2.9037113E-3,-2.7286807E-2,-8.613406E-3,6.229128E-3,1.9119618E-2,-1.6482856E-2],"split_indices":[0,1,2,0,2,1,1,0,2,0,0,1,1,2,1,1,2,2,1,0,1,2,1,2,2,1,2,0,1,2,2,0,0,0,0,0,0,0,0,0,0,0,0,0,0,0,0,0,0,0,0,0,0,0,0,0,0,0,0,0,0,0,0],"split_type":[0,0,0,0,0,0,0,0,0,0,0,0,0,0,0,0,0,0,0,0,0,0,0,0,0,0,0,0,0,0,0,0,0,0,0,0,0,0,0,0,0,0,0,0,0,0,0,0,0,0,0,0,0,0,0,0,0,0,0,0,0,0,0],"sum_hessian":[1.0834531E4,7.997252E3,2.8372798E3,3.4196333E3,4.5776187E3,6.457491E2,2.1915308E3,2.6960012E3,7.236321E2,1.9567351E2,4.3819453E3,2.5033582E2,3.954133E2,1.01071185E3,1.1808188E3,1.3850437E3,1.3109574E3,3.828724E1,6.8534485E2,1.5445555E2,4.121796E1,2.7197314E3,1.6622139E3,5.0850826E1,1.9948499E2,2.8237164E2,1.1304166E2,5.435822E2,4.671297E2,9.6630237E2,2.1451642E2,1.2404345E2,1.2610002E3,1.2941127E3,1.684473E1,2.2158607E1,1.6128633E1,1.4835107E2,5.369938E2,9.8587265E1,5.586829E1,6.6114616E0,3.46065E1,8.6016187E2,1.8595695E3,1.4412256E3,2.2098827E2,3.7342533E1,1.3508294E1,3.3595913E1,1.6588908E2,7.5810265E1,2.0656137E2,6.129922E0,1.06911736E2,2.749148E2,2.6866742E2,3.877611E2,7.9368576E1,5.868463E2,3.794561E2,1.9258989E2,2.1926527E1],"tree_param":{"num_deleted":"0","num_feature":"3","num_nodes":"63","size_leaf_vector":"1"}},{"base_weights":[-9.746444E-5,7.95308E-2,-2.2471106E-1,1.4666137E-1,2.9364979E-2,-5.4163164E-1,-1.3136756E-1,1.1140323E-1,2.7775338E-1,-1.7045206E-1,7.568818E-2,-8.5109603E-1,-3.4507838E-1,-2.966707E-1,1.0132222E-2,1.8295027E-1,3.575177E-2,1.0511742E0,2.3323326E-1,-9.323779E-2,-4.4845784E-1,1.5120146E-1,-5.2439615E-2,-2.1422447E-1,-1.0125843E0,-4.3149674E-1,-1.2758058E-1,-4.353556E-1,-1.3493499E-1,-1.4620005E-1,1.2881592E-1,-7.8396825E-3,1.0824182E-2,4.347998E-3,-9.374033E-3,6.0984474E-2,3.8122736E-2,2.227421E-2,8.6967675E-3,-1.6813331E-3,-2.6048902E-2,-1.8373145E-3,-4.5569956E-2,4.699485E-3,1.2981082E-2,2.3738584E-2,-3.7389856E-3,-7.039451E-2,-3.7011802E-3,-7.73781E-2,-4.4849347E-2,-3.172363E-2,-1.3727456E-2,-5.1892977E-2,-3.3252612E-3,-2.6768846E-2,-1.6575823E-2,-2.7589814E-3,-2.5984434E-2,-1.0128065E-2,2.1479892E-2,3.7336994E-3,1.6981682E-2],"categories":[],"categories_nodes":[],"categories_segments":[],"categories_sizes":[],"default_left":[0,0,0,0,0,0,0,0,0,0,0,0,0,0,0,0,0,0,0,0,0,0,0,0,0,0,0,0,0,0,0,0,0,0,0,0,0,0,0,0,0,0,0,0,0,0,0,0,0,0,0,0,0,0,0,0,0,0,0,0,0,0,0],"id":6,"left_children":[1,3,5,7,9,11,13,15,17,19,21,23,25,27,29,31,33,35,37,39,41,43,45,47,49,51,53,55,57,59,61,-1,-1,-1,-1,-1,-1,-1,-1,-1,-1,-1,-1,-1,-1,-1,-1,-1,-1,-1,-1,-1,-1,-1,-1,-1,-1,-1,-1,-1,-1,-1,-1],"loss_changes":[1.9372177E2,2.6924713E1,8.3789444E1,1.5774956E1,4.2384777E1,3.8918335E1,5.1254795E1,1.4588821E1,2.4688755E1,1.8458067E1,3.5969948E1,2.546643E1,7.386837E0,2.260949E1,2.194128E1,1.581995E1,1.5013241E1,9.738083E-1,8.556591E0,1.7212807E1,3.5622112E1,1.4483299E1,1.6277485E1,8.5615E0,1.0914825E1,8.838989E0,6.269057E0,5.468689E0,1.4331897E1,1.6649746E1,7.646921E0,0E0,0E0,0E0,0E0,0E0,0E0,0E0,0E0,0E0,0E0,0E0,0E0,0E0,0E0,0E0,0E0,0E0,0E0,0E0,0E0,0E0,0E0,0E0,0E0,0E0,0E0,0E0,0E0,0E0,0E0,0E0,0E0],"parents":[2147483647,0,0,1,1,2,2,3,3,4,4,5,5,6,6,7,7,8,8,9,9,10,10,11,11,12,12,13,13,14,14,15,15,16,16,17,17,18,18,19,19,20,20,21,21,22,22,23,23,24,24,25,25,26,26,27,27,28,28,29,29,30,30],"right_children":[2,4,6,8,10,12,14,16,18,20,22,24,26,28,30,32,34,36,38,40,42,44,46,48,50,52,54,56,58,60,62,-1,-1,-1,-1,-1,-1,-1,-1,-1,-1,-1,-1,-1,-1,-1,-1,-1,-1,-1,-1,-1,-1,-1,-1,-1,-1,-1,-1,-1,-1,-1,-1],"split_conditions":[5E0,1E1,1.4411016E4,4E0,2.4072129E4,9E0,1.2E1,2E0,1.2164943E4,4E0,3E0,2E0,2.1E1,3.2371451E4,6E0,1E0,8E0,1.094433E4,2E0,2.2492145E4,2E1,2E0,2.5854059E4,7.000043E3,7.520434E3,1.0454904E4,5.417048E3,6E0,1E1,2.3E1,2.2E1,-7.8396825E-3,1.0824182E-2,4.347998E-3,-9.374033E-3,6.0984474E-2,3.8122736E-2,2.227421E-2,8.6967675E-3,-1.6813331E-3,-2.6048902E-2,-1.8373145E-3,-4.5569956E-2,4.699485E-3,1.2981082E-2,2.3738584E-2,-3.7389856E-3,-7.039451E-2,-3.7011802E-3,-7.73781E-2,-4.4849347E-2,-3.172363E-2,-1.3727456E-2,-5.1892977E-2,-3.3252612E-3,-2.6768846E-2,-1.6575823E-2,-2.7589814E-3,-2.5984434E-2,-1.0128065E-2,2.1479892E-2,3.7336994E-3,1.6981682E-2],"split_indices":[0,1,2,0,2,1,1,0,2,0,0,1,1,2,0,1,1,2,1,2,1,0,2,2,2,2,2,0,1,1,1,0,0,0,0,0,0,0,0,0,0,0,0,0,0,0,0,0,0,0,0,0,0,0,0,0,0,0,0,0,0,0,0],"split_type":[0,0,0,0,0,0,0,0,0,0,0,0,0,0,0,0,0,0,0,0,0,0,0,0,0,0,0,0,0,0,0,0,0,0,0,0,0,0,0,0,0,0,0,0,0,0,0,0,0,0,0,0,0,0,0,0,0,0,0,0,0,0,0],"sum_hessian":[1.0829166E4,7.995359E3,2.8338066E3,3.4186667E3,4.5766924E3,6.436565E2,2.1901501E3,2.6955334E3,7.231333E2,8.6082196E2,3.7158704E3,2.4872304E2,3.9493344E2,1.0096077E3,1.1805425E3,1.3846183E3,1.3109153E3,3.8129063E1,6.850043E2,6.7475E2,1.8607198E2,2.3378545E3,1.3780156E3,5.0781075E1,1.9794196E2,2.819302E2,1.1300323E2,5.4262585E2,4.669819E2,5.0936545E2,6.71177E2,1.2405693E2,1.2605613E3,1.0668066E3,2.4410867E2,2.204039E1,1.6088675E1,1.4816171E2,5.368425E2,5.931636E2,8.158638E1,9.905655E1,8.701543E1,1.5315468E3,8.0630786E2,5.519516E1,1.3228206E3,4.387141E0,4.6393932E1,3.297023E1,1.6497173E2,1.216113E2,1.6031892E2,6.099658E0,1.0690357E2,2.7427716E2,2.683487E2,3.8774902E2,7.923286E1,4.645425E2,4.4822945E1,5.3510596E2,1.3607101E2],"tree_param":{"num_deleted":"0","num_feature":"3","num_nodes":"63","size_leaf_vector":"1"}},{"base_weights":[-1.212814E-4,7.558695E-2,-2.1390802E-1,1.394164E-1,2.7893832E-2,-3.8427177E-1,-5.4529786E-2,2.7868804E-1,1.0758533E-1,-4.1342446E-1,4.763752E-2,-4.6982554E-1,1.0270253E-1,-1.8773974E-1,4.6244595E-2,3.2680935E-1,6.7595644E-3,-3.4546253E-1,1.16096295E-1,-2.2770275E-1,-1.094781E0,1.206156E-1,-7.17419E-2,-1.0476576E0,-4.2594188E-1,-2.0228235E-1,3.820245E-1,-2.5122413E-1,-3.0421294E-2,9.600885E-1,2.4389792E-2,1.2720051E-2,2.7656948E-2,5.114716E-2,-1.0560198E-2,-4.081563E-3,-5.3280618E-2,5.231604E-3,2.1592608E-2,-2.6408508E-2,1.5091694E-2,1.5667625E-2,-6.84557E-2,1.750752E-3,1.0574381E-2,-5.225961E-3,7.0769093E-3,-7.204561E-2,-3.309868E-2,-2.9007522E-2,-1.5986996E-2,-1.6836806E-3,-3.2210402E-2,2.2869965E-2,-1.0082438E-2,-1.1602684E-2,-6.295028E-2,-1.005379E-2,5.2421023E-3,3.1169707E-2,6.1355837E-2,-1.34584475E-2,4.91688E-3],"categories":[],"categories_nodes":[],"categories_segments":[],"categories_sizes":[],"default_left":[0,0,0,0,0,0,0,0,0,0,0,0,0,0,0,0,0,0,0,0,0,0,0,0,0,0,0,0,0,0,0,0,0,0,0,0,0,0,0,0,0,0,0,0,0,0,0,0,0,0,0,0,0,0,0,0,0,0,0,0,0,0,0],"id":7,"left_children":[1,3,5,7,9,11,13,15,17,19,21,23,25,27,29,31,33,35,37,39,41,43,45,47,49,51,53,55,57,59,61,-1,-1,-1,-1,-1,-1,-1,-1,-1,-1,-1,-1,-1,-1,-1,-1,-1,-1,-1,-1,-1,-1,-1,-1,-1,-1,-1,-1,-1,-1,-1,-1],"loss_changes":[1.7521008E2,2.4332256E1,7.6846664E1,1.5124817E1,3.989758E1,5.7049545E1,1.9659153E1,8.311455E0,1.077552E1,2.4564152E1,3.8181572E1,2.906723E1,1.7563866E1,6.290785E0,1.6636501E1,8.70536E0,2.1600306E1,9.715118E0,9.850086E0,2.4876858E1,1.6552246E1,2.1147942E1,1.1640097E1,1.1402641E1,1.7558136E1,7.3386703E0,4.821089E0,8.385979E0,4.2328286E0,9.843712E-1,1.7733957E1,0E0,0E0,0E0,0E0,0E0,0E0,0E0,0E0,0E0,0E0,0E0,0E0,0E0,0E0,0E0,0E0,0E0,0E0,0E0,0E0,0E0,0E0,0E0,0E0,0E0,0E0,0E0,0E0,0E0,0E0,0E0,0E0],"parents":[2147483647,0,0,1,1,2,2,3,3,4,4,5,5,6,6,7,7,8,8,9,9,10,10,11,11,12,12,13,13,14,14,15,15,16,16,17,17,18,18,19,19,20,20,21,21,22,22,23,23,24,24,25,25,26,26,27,27,28,28,29,29,30,30],"right_children":[2,4,6,8,10,12,14,16,18,20,22,24,26,28,30,32,34,36,38,40,42,44,46,48,50,52,54,56,58,60,62,-1,-1,-1,-1,-1,-1,-1,-1,-1,-1,-1,-1,-1,-1,-1,-1,-1,-1,-1,-1,-1,-1,-1,-1,-1,-1,-1,-1,-1,-1,-1,-1],"split_conditions":[5E0,1E1,2.4972256E4,2.0119635E4,1.3574525E4,2.1E1,6E0,8E0,2.089262E4,4E0,3E0,7.520434E3,1.2973689E4,6.2577164E4,2.5389227E4,6E0,1E0,7E0,1.9625147E5,3E0,1.1E1,5.312866E4,2.2E1,9E0,8E0,1.094433E4,2.3282469E4,5.9827086E4,1.2E1,2.5171965E4,3.2371451E4,1.2720051E-2,2.7656948E-2,5.114716E-2,-1.0560198E-2,-4.081563E-3,-5.3280618E-2,5.231604E-3,2.1592608E-2,-2.6408508E-2,1.5091694E-2,1.5667625E-2,-6.84557E-2,1.750752E-3,1.0574381E-2,-5.225961E-3,7.0769093E-3,-7.204561E-2,-3.309868E-2,-2.9007522E-2,-1.5986996E-2,-1.6836806E-3,-3.2210402E-2,2.2869965E-2,-1.0082438E-2,-1.1602684E-2,-6.295028E-2,-1.005379E-2,5.2421023E-3,3.1169707E-2,6.1355837E-2,-1.34584475E-2,4.91688E-3],"split_indices":[0,1,2,2,2,1,0,1,2,0,0,2,2,2,2,1,0,1,2,0,1,2,1,1,1,2,2,2,1,2,2,0,0,0,0,0,0,0,0,0,0,0,0,0,0,0,0,0,0,0,0,0,0,0,0,0,0,0,0,0,0,0,0],"split_type":[0,0,0,0,0,0,0,0,0,0,0,0,0,0,0,0,0,0,0,0,0,0,0,0,0,0,0,0,0,0,0,0,0,0,0,0,0,0,0,0,0,0,0,0,0,0,0,0,0,0,0,0,0,0,0,0,0,0,0,0,0,0,0],"sum_hessian":[1.0823184E4,7.9932E3,2.8299832E3,3.4175051E3,4.575695E3,1.3671685E3,1.4628148E3,6.343321E2,2.783173E3,1.9508743E2,4.3806074E3,1.1629003E3,2.0426822E2,6.2964594E2,8.331688E2,5.387852E2,9.554687E1,5.0590553E1,2.7325825E3,1.5434958E2,4.073786E1,2.718652E3,1.6619553E3,8.04685E1,1.0824318E3,9.77802E1,1.06488014E2,4.481873E2,1.8145865E2,1.8457338E1,8.147115E2,4.098033E2,1.2898192E2,1.6222338E1,7.932453E1,3.7840725E1,1.2749827E1,2.6381309E3,9.445178E1,9.847557E1,5.587401E1,6.619282E0,3.411858E1,1.4006442E3,1.3180079E3,1.4410082E3,2.2094714E2,3.848851E1,4.1979992E1,4.39623E2,6.428087E2,7.155563E1,2.6224562E1,9.450067E1,1.1987344E1,4.410281E2,7.159167E0,8.001786E1,1.01440796E2,9.638621E0,8.818717E0,1.6340092E2,6.513106E2],"tree_param":{"num_deleted":"0","num_feature":"3","num_nodes":"63","size_leaf_vector":"1"}},{"base_weights":[-1.3638924E-4,7.182833E-2,-2.0355836E-1,1.6187166E-1,4.038247E-2,-4.9622992E-1,-1.1783123E-1,1.1537271E-1,3.3196703E-1,1.12877876E-1,-7.576895E-2,-7.859655E-1,-3.1421617E-1,-2.704177E-1,1.2552007E-2,-8.161507E-2,1.2014068E-1,7.6277506E-1,2.6162928E-1,-2.6639444E-1,1.2826173E-1,-1.4920624E-1,7.2460555E-2,-1.7225593E-1,-9.435345E-1,1.8884504E-1,-3.4624445E-1,-3.9523014E-1,-1.253542E-1,-1.3220192E-1,1.2240161E-1,1.885495E-3,9.92521E-3,5.9622206E-2,3.0379802E-2,-1.4456558E-4,1.911859E-2,2.5699452E-2,-2.3320546E-2,4.1563413E-3,1.0777443E-2,-1.50215505E-2,-3.7402133E-4,1.8302256E-2,-8.5833855E-4,-6.6117786E-2,-2.0223584E-3,-7.3278725E-2,-4.1711304E-2,2.3644043E-2,-6.898477E-2,-2.2306608E-2,-5.8186E-3,-2.452561E-2,-1.4827916E-2,-2.464659E-3,-2.4653291E-2,-9.22701E-3,2.015259E-2,3.6268928E-3,1.5836088E-2],"categories":[],"categories_nodes":[],"categories_segments":[],"categories_sizes":[],"default_left":[0,0,0,0,0,0,0,0,0,0,0,0,0,0,0,0,0,0,0,0,0,0,0,0,0,0,0,0,0,0,0,0,0,0,0,0,0,0,0,0,0,0,0,0,0,0,0,0,0,0,0,0,0,0,0,0,0,0,0,0,0],"id":8,"left_children":[1,3,5,7,9,11,13,15,17,19,21,23,25,27,29,-1,31,33,35,37,39,41,43,45,47,49,51,53,55,57,59,-1,-1,-1,-1,-1,-1,-1,-1,-1,-1,-1,-1,-1,-1,-1,-1,-1,-1,-1,-1,-1,-1,-1,-1,-1,-1,-1,-1,-1,-1],"loss_changes":[1.5838374E2,2.2622341E1,7.087784E1,1.632006E1,4.9896393E1,3.3515427E1,4.3534412E1,1.3743406E1,1.3238941E1,2.1320393E1,2.4801361E1,2.3659637E1,6.4276047E0,1.8205292E1,1.879281E1,0E0,1.0471731E1,3.3908768E0,1.2226099E1,2.2487877E1,1.3797401E1,3.2644054E1,1.9876919E1,7.7612987E0,9.950165E0,1.1470761E1,8.480263E0,4.9453583E0,1.3058083E1,1.4360407E1,6.4872103E0,0E0,0E0,0E0,0E0,0E0,0E0,0E0,0E0,0E0,0E0,0E0,0E0,0E0,0E0,0E0,0E0,0E0,0E0,0E0,0E0,0E0,0E0,0E0,0E0,0E0,0E0,0E0,0E0,0E0,0E0],"parents":[2147483647,0,0,1,1,2,2,3,3,4,4,5,5,6,6,7,7,8,8,9,9,10,10,11,11,12,12,13,13,14,14,16,16,17,17,18,18,19,19,20,20,21,21,22,22,23,23,24,24,25,25,26,26,27,27,28,28,29,29,30,30],"right_children":[2,4,6,8,10,12,14,16,18,20,22,24,26,28,30,-1,32,34,36,38,40,42,44,46,48,50,52,54,56,58,60,-1,-1,-1,-1,-1,-1,-1,-1,-1,-1,-1,-1,-1,-1,-1,-1,-1,-1,-1,-1,-1,-1,-1,-1,-1,-1,-1,-1,-1,-1],"split_conditions":[5E0,6E0,1.4411016E4,4E0,3E0,9E0,1.2E1,8.054849E3,1.5724327E4,1.3767655E4,6.619721E4,2E0,1E1,3.2371451E4,6E0,-8.161507E-2,3E0,1.094433E4,2.8509842E4,9E0,2E0,4E0,1.1E1,7.000043E3,7.520434E3,1.3574525E4,2.1E1,6E0,1E1,2.3E1,2.2E1,1.885495E-3,9.92521E-3,5.9622206E-2,3.0379802E-2,-1.4456558E-4,1.911859E-2,2.5699452E-2,-2.3320546E-2,4.1563413E-3,1.0777443E-2,-1.50215505E-2,-3.7402133E-4,1.8302256E-2,-8.5833855E-4,-6.6117786E-2,-2.0223584E-3,-7.3278725E-2,-4.1711304E-2,2.3644043E-2,-6.898477E-2,-2.2306608E-2,-5.8186E-3,-2.452561E-2,-1.4827916E-2,-2.464659E-3,-2.4653291E-2,-9.22701E-3,2.015259E-2,3.6268928E-3,1.5836088E-2],"split_indices":[0,1,2,0,0,1,1,2,2,2,2,1,1,2,0,0,1,2,2,1,0,0,1,2,2,2,1,0,1,1,1,0,0,0,0,0,0,0,0,0,0,0,0,0,0,0,0,0,0,0,0,0,0,0,0,0,0,0,0,0,0],"split_type":[0,0,0,0,0,0,0,0,0,0,0,0,0,0,0,0,0,0,0,0,0,0,0,0,0,0,0,0,0,0,0,0,0,0,0,0,0,0,0,0,0,0,0,0,0,0,0,0,0,0,0,0,0,0,0,0,0,0,0,0,0],"sum_hessian":[1.081715E4,7.990864E3,2.8262861E3,2.0672551E3,5.923609E3,6.39217E2,2.187069E3,1.6247703E3,4.4248495E2,3.6472324E3,2.2763762E3,2.4534709E2,3.938699E2,1.0072355E3,1.1798337E3,3.4918795E0,1.6212784E3,6.0722755E1,3.817622E2,1.4153452E2,3.505698E3,1.5222178E3,7.5415845E2,5.0551014E1,1.9479608E2,2.328239E1,3.7058752E2,5.4048145E2,4.6675403E2,5.0895566E2,6.7087805E2,7.908561E2,8.304223E2,1.4338137E1,4.6384617E1,1.1995121E2,2.61811E2,2.8554943E1,1.1297957E2,2.3120981E3,1.1936E3,7.3588806E2,7.863297E2,1.7566467E2,5.784938E2,4.2690406E0,4.6281975E1,3.1577784E1,1.6321829E2,2.0304173E1,2.978217E0,2.57677E2,1.1291052E2,2.7294342E2,2.6753802E2,3.8769376E2,7.9060265E1,4.6421857E2,4.473708E1,5.3497375E2,1.3590431E2],"tree_param":{"num_deleted":"0","num_feature":"3","num_nodes":"61","size_leaf_vector":"1"}},{"base_weights":[-1.5724312E-4,6.826359E-2,-1.9380563E-1,1.538659E-1,3.8374845E-2,-4.738505E-1,-1.1204888E-1,1.0958301E-1,3.1602708E-1,1.0726748E-1,-7.198901E-2,-7.538689E-1,-2.991462E-1,-2.5732356E-1,1.1954198E-2,-7.830381E-2,1.1416401E-1,9.9846894E-1,2.746725E-1,-4.111177E-1,1.1762114E-1,-1.4177628E-1,6.886819E-2,-1.6524631E-1,-9.063014E-1,-2.8028518E-1,-1.1636384E0,-3.7637657E-1,-1.19197056E-1,-1.256207E-1,1.16334155E-1,1.79143E-3,9.432777E-3,1.888253E-2,5.2567095E-2,1.4455333E-2,-5.0471175E-2,4.0569033E-2,-3.3286735E-2,3.882321E-3,1.0516611E-2,-1.4275546E-2,-3.5534785E-4,1.7399278E-2,-8.155158E-4,-1.9827265E-2,2.2580935E-2,-7.147026E-2,-3.9934907E-2,1.0902902E-2,-1.5603497E-2,-7.240956E-2,-2.712063E-2,-2.33735E-2,-1.4109368E-2,-2.3418309E-3,-2.3488492E-2,-8.76944E-3,1.919248E-2,-2.7037574E-2,6.522408E-3],"categories":[],"categories_nodes":[],"categories_segments":[],"categories_sizes":[],"default_left":[0,0,0,0,0,0,0,0,0,0,0,0,0,0,0,0,0,0,0,0,0,0,0,0,0,0,0,0,0,0,0,0,0,0,0,0,0,0,0,0,0,0,0,0,0,0,0,0,0,0,0,0,0,0,0,0,0,0,0,0,0],"id":9,"left_children":[1,3,5,7,9,11,13,15,17,19,21,23,25,27,29,-1,31,33,35,37,39,41,43,45,47,49,51,53,55,57,59,-1,-1,-1,-1,-1,-1,-1,-1,-1,-1,-1,-1,-1,-1,-1,-1,-1,-1,-1,-1,-1,-1,-1,-1,-1,-1,-1,-1,-1,-1],"loss_changes":[1.4326439E2,2.0436275E1,6.458069E1,1.481126E1,4.5044617E1,3.0966309E1,3.9389626E1,1.2656157E1,1.2226219E1,1.9623966E1,2.239368E1,2.177092E1,6.1029015E0,1.6512611E1,1.6966698E1,0E0,9.457926E0,4.211998E-1,8.05801E0,2.2840317E1,1.3239029E1,2.9478363E1,1.7957605E1,7.5237727E0,9.768753E0,6.201071E0,6.4660263E-1,4.5039825E0,1.1839006E1,1.2992289E1,6.300418E0,0E0,0E0,0E0,0E0,0E0,0E0,0E0,0E0,0E0,0E0,0E0,0E0,0E0,0E0,0E0,0E0,0E0,0E0,0E0,0E0,0E0,0E0,0E0,0E0,0E0,0E0,0E0,0E0,0E0,0E0],"parents":[2147483647,0,0,1,1,2,2,3,3,4,4,5,5,6,6,7,7,8,8,9,9,10,10,11,11,12,12,13,13,14,14,16,16,17,17,18,18,19,19,20,20,21,21,22,22,23,23,24,24,25,25,26,26,27,27,28,28,29,29,30,30],"right_children":[2,4,6,8,10,12,14,16,18,20,22,24,26,28,30,-1,32,34,36,38,40,42,44,46,48,50,52,54,56,58,60,-1,-1,-1,-1,-1,-1,-1,-1,-1,-1,-1,-1,-1,-1,-1,-1,-1,-1,-1,-1,-1,-1,-1,-1,-1,-1,-1,-1,-1,-1],"split_conditions":[5E0,6E0,1.4411016E4,4E0,3E0,9E0,1.2E1,8.054849E3,1.1935027E4,1.1682769E4,6.619721E4,2E0,1.4202709E4,3.2371451E4,6E0,-7.830381E-2,3E0,8.418921E3,3.071408E5,8E0,7.267864E4,4E0,1.1E1,1.2601072E4,7.520434E3,1E1,1.7E1,6E0,1E1,2.3E1,1.5324474E4,1.79143E-3,9.432777E-3,1.888253E-2,5.2567095E-2,1.4455333E-2,-5.0471175E-2,4.0569033E-2,-3.3286735E-2,3.882321E-3,1.0516611E-2,-1.4275546E-2,-3.5534785E-4,1.7399278E-2,-8.155158E-4,-1.9827265E-2,2.2580935E-2,-7.147026E-2,-3.9934907E-2,1.0902902E-2,-1.5603497E-2,-7.240956E-2,-2.712063E-2,-2.33735E-2,-1.4109368E-2,-2.3418309E-3,-2.3488492E-2,-8.76944E-3,1.919248E-2,-2.7037574E-2,6.522408E-3],"split_indices":[0,1,2,0,0,1,1,2,2,2,2,1,2,2,0,0,1,2,2,1,2,0,1,2,2,1,1,0,1,1,2,0,0,0,0,0,0,0,0,0,0,0,0,0,0,0,0,0,0,0,0,0,0,0,0,0,0,0,0,0,0],"split_type":[0,0,0,0,0,0,0,0,0,0,0,0,0,0,0,0,0,0,0,0,0,0,0,0,0,0,0,0,0,0,0,0,0,0,0,0,0,0,0,0,0,0,0,0,0,0,0,0,0,0,0,0,0,0,0,0,0,0,0,0,0],"sum_hessian":[1.0810747E4,7.988764E3,2.8219832E3,2.066395E3,5.922369E3,6.366034E2,2.18538E3,1.6244633E3,4.4193182E2,3.646276E3,2.2760933E3,2.4330911E2,3.9329428E2,1.00587775E3,1.1795021E3,3.4996004E0,1.6209636E3,2.3927713E1,4.1800412E2,7.064272E1,3.575633E3,1.5220111E3,7.540823E2,5.047654E1,1.9283257E2,3.8619275E2,7.101527E0,5.393125E2,4.6656528E2,5.0875253E2,6.707496E2,7.908185E2,8.3014514E2,2.5169563E0,2.1410757E1,4.1412393E2,3.8801951E0,1.1800079E1,5.8842648E1,2.4996733E3,1.0759597E3,7.35684E2,7.86327E2,1.7559573E2,5.784865E2,3.697107E1,1.3505469E1,3.0802912E1,1.6202965E2,2.2803484E1,3.6338925E2,3.9575741E0,3.143953E0,2.7214713E2,2.6716534E2,3.8767938E2,7.888588E1,4.6407468E2,4.467785E1,1.3319916E1,6.574297E2],"tree_param":{"num_deleted":"0","num_feature":"3","num_nodes":"61","size_leaf_vector":"1"}},{"base_weights":[-1.8262674E-4,6.486894E-2,-1.8452953E-1,1.4622638E-1,3.646846E-2,-3.3480278E-1,-4.48577E-2,1.04085274E-1,3.0071217E-1,1.0193756E-1,-6.8400316E-2,-4.1237637E-1,1.0365506E-1,-1.6120753E-1,4.3078285E-2,-7.531861E-2,1.0848619E-1,7.038972E-1,2.352771E-1,-2.4534883E-1,1.15988374E-1,-1.347224E-1,6.545647E-2,-9.543744E-1,-3.7236798E-1,-1.715729E-1,3.5583654E-1,-2.2003482E-1,-1.5735367E-2,9.218465E-1,2.2064999E-2,-3.0047034E-3,7.000461E-3,5.5574216E-2,2.792654E-2,-8.5459836E-4,1.753415E-2,2.368465E-2,-2.1469042E-2,3.653352E-3,9.951677E-3,-1.3567844E-2,-3.3760167E-4,1.6543144E-2,-7.74817E-4,-6.657756E-2,-3.0231655E-2,-2.5384372E-2,-1.3993687E-2,2.2600836E-3,-2.4265684E-2,2.1432497E-2,-1.0304333E-2,-9.8028295E-3,-4.8291624E-2,-9.018935E-3,5.725793E-3,3.000318E-2,5.8820136E-2,-1.249625E-2,4.525178E-3],"categories":[],"categories_nodes":[],"categories_segments":[],"categories_sizes":[],"default_left":[0,0,0,0,0,0,0,0,0,0,0,0,0,0,0,0,0,0,0,0,0,0,0,0,0,0,0,0,0,0,0,0,0,0,0,0,0,0,0,0,0,0,0,0,0,0,0,0,0,0,0,0,0,0,0,0,0,0,0,0,0],"id":10,"left_children":[1,3,5,7,9,11,13,15,17,19,21,23,25,27,29,-1,31,33,35,37,39,41,43,45,47,49,51,53,55,57,59,-1,-1,-1,-1,-1,-1,-1,-1,-1,-1,-1,-1,-1,-1,-1,-1,-1,-1,-1,-1,-1,-1,-1,-1,-1,-1,-1,-1,-1,-1],"loss_changes":[1.2958739E2,1.8450527E1,5.914435E1,1.3421913E1,4.0665627E1,4.6218964E1,1.4964979E1,1.1681459E1,1.1504906E1,1.7821175E1,2.022077E1,2.4662659E1,1.4281637E1,5.3838844E0,1.5370043E1,0E0,8.625992E0,3.009184E0,1.1134409E1,1.900832E1,1.2479412E1,2.6623493E1,1.6226225E1,9.572609E0,1.3326157E1,6.730617E0,4.47631E0,7.8254395E0,3.931104E0,8.8643074E-1,1.5193766E1,0E0,0E0,0E0,0E0,0E0,0E0,0E0,0E0,0E0,0E0,0E0,0E0,0E0,0E0,0E0,0E0,0E0,0E0,0E0,0E0,0E0,0E0,0E0,0E0,0E0,0E0,0E0,0E0,0E0,0E0],"parents":[2147483647,0,0,1,1,2,2,3,3,4,4,5,5,6,6,7,7,8,8,9,9,10,10,11,11,12,12,13,13,14,14,16,16,17,17,18,18,19,19,20,20,21,21,22,22,23,23,24,24,25,25,26,26,27,27,28,28,29,29,30,30],"right_children":[2,4,6,8,10,12,14,16,18,20,22,24,26,28,30,-1,32,34,36,38,40,42,44,46,48,50,52,54,56,58,60,-1,-1,-1,-1,-1,-1,-1,-1,-1,-1,-1,-1,-1,-1,-1,-1,-1,-1,-1,-1,-1,-1,-1,-1,-1,-1,-1,-1,-1,-1],"split_conditions":[5E0,6E0,2.4972256E4,4E0,3E0,2.1E1,6E0,8.054849E3,1.5724327E4,1.3767655E4,6.619721E4,7.520434E3,1.2973689E4,6.2577164E4,2.5389227E4,-7.531861E-2,1E0,1.094433E4,2.8509842E4,9E0,2E0,4E0,1.1E1,9E0,8E0,9.891733E3,2.3282469E4,5.8472543E4,1.2E1,2.5171965E4,3.2371451E4,-3.0047034E-3,7.000461E-3,5.5574216E-2,2.792654E-2,-8.5459836E-4,1.753415E-2,2.368465E-2,-2.1469042E-2,3.653352E-3,9.951677E-3,-1.3567844E-2,-3.3760167E-4,1.6543144E-2,-7.74817E-4,-6.657756E-2,-3.0231655E-2,-2.5384372E-2,-1.3993687E-2,2.2600836E-3,-2.4265684E-2,2.1432497E-2,-1.0304333E-2,-9.8028295E-3,-4.8291624E-2,-9.018935E-3,5.725793E-3,3.000318E-2,5.8820136E-2,-1.249625E-2,4.525178E-3],"split_indices":[0,1,2,0,0,1,0,2,2,2,2,2,2,2,2,0,1,2,2,1,0,0,1,1,1,2,2,2,1,2,2,0,0,0,0,0,0,0,0,0,0,0,0,0,0,0,0,0,0,0,0,0,0,0,0,0,0,0,0,0,0],"split_type":[0,0,0,0,0,0,0,0,0,0,0,0,0,0,0,0,0,0,0,0,0,0,0,0,0,0,0,0,0,0,0,0,0,0,0,0,0,0,0,0,0,0,0,0,0,0,0,0,0,0,0,0,0,0,0,0,0,0,0,0,0],"sum_hessian":[1.0804105E4,7.986508E3,2.8175977E3,2.0654807E3,5.921027E3,1.3566151E3,1.4609824E3,1.6241215E3,4.4135913E2,3.6453064E3,2.2757205E3,1.1527295E3,2.0388573E2,6.285295E2,8.32453E2,3.4960682E0,1.6206255E3,6.0266098E1,3.8109302E2,1.411098E2,3.5041968E3,1.5217379E3,7.539825E2,7.76701E1,1.0750593E3,9.764106E1,1.06244675E2,4.471817E2,1.8134778E2,1.8439743E1,8.1401324E2,2.5516049E2,1.365465E3,1.409621E1,4.6169888E1,1.19852356E2,2.6124066E2,2.8435171E1,1.1267463E2,2.3114297E3,1.1927671E3,7.354134E2,7.863245E2,1.7550304E2,5.7847943E2,3.6018677E1,4.1651417E1,4.346604E2,6.403989E2,5.8250004E1,3.9391052E1,9.426686E1,1.19778185E1,4.344757E2,1.2706008E1,7.9929054E1,1.0141873E2,9.627267E0,8.812475E0,1.6311325E2,6.5089996E2],"tree_param":{"num_deleted":"0","num_feature":"3","num_nodes":"61","size_leaf_vector":"1"}},{"base_weights":[-1.8574808E-4,6.165225E-2,-1.7563358E-1,1.14558764E-1,2.214002E-2,-4.3451172E-1,-1.0053367E-1,2.4411844E-1,8.415828E-2,-9.1160424E-2,8.152833E-2,-6.979922E-1,-2.723316E-1,-2.346394E-1,1.370222E-2,-1.4354768E-1,2.714425E-1,-5.611075E-1,9.2769586E-2,-4.9880052E-1,-6.6598766E-2,1.4942184E-1,-3.3912577E-2,-1.28055E-1,-8.4777015E-1,-2.5401258E-1,-1.1172678E0,-3.3766857E-1,-1.0602172E-1,-3.865463E-2,2.4921712E-1,-4.7593698E-2,2.1549646E-2,1.6020318E-2,9.770222E-4,-4.0917285E-3,-7.583217E-2,4.111132E-3,1.919834E-2,-1.2451383E-2,-7.874572E-2,-5.9545445E-3,1.5818164E-3,1.7506982E-3,9.659115E-3,4.6517346E-2,-2.7978173E-3,-6.201895E-2,-2.4180941E-4,-6.838178E-2,-3.7246644E-2,1.1200111E-2,-1.423077E-2,-6.956925E-2,-2.6053414E-2,-2.2925434E-3,-1.8395366E-2,1.5580355E-2,-8.095591E-3,-6.9331587E-3,5.7909465E-3,1.598618E-2,-1.7740298E-2],"categories":[],"categories_nodes":[],"categories_segments":[],"categories_sizes":[],"default_left":[0,0,0,0,0,0,0,0,0,0,0,0,0,0,0,0,0,0,0,0,0,0,0,0,0,0,0,0,0,0,0,0,0,0,0,0,0,0,0,0,0,0,0,0,0,0,0,0,0,0,0,0,0,0,0,0,0,0,0,0,0,0,0],"id":11,"left_children":[1,3,5,7,9,11,13,15,17,19,21,23,25,27,29,31,33,35,37,39,41,43,45,47,49,51,53,55,57,59,61,-1,-1,-1,-1,-1,-1,-1,-1,-1,-1,-1,-1,-1,-1,-1,-1,-1,-1,-1,-1,-1,-1,-1,-1,-1,-1,-1,-1,-1,-1,-1,-1],"loss_changes":[1.1716569E2,1.6689678E1,5.4672455E1,1.3424576E1,3.0773552E1,2.683963E1,3.3443264E1,6.9054413E0,1.5423681E1,1.5715386E1,2.3521538E1,2.0410141E1,5.802046E0,1.3270416E1,1.4556005E1,2.053594E1,7.466934E0,1.6625431E1,8.355398E0,2.3592424E1,7.659669E0,9.452995E0,2.3687656E1,7.0114465E0,9.147842E0,5.7123566E0,5.9050083E-1,4.8988457E0,1.05089245E1,1.4939289E1,9.256499E0,0E0,0E0,0E0,0E0,0E0,0E0,0E0,0E0,0E0,0E0,0E0,0E0,0E0,0E0,0E0,0E0,0E0,0E0,0E0,0E0,0E0,0E0,0E0,0E0,0E0,0E0,0E0,0E0,0E0,0E0,0E0,0E0],"parents":[2147483647,0,0,1,1,2,2,3,3,4,4,5,5,6,6,7,7,8,8,9,9,10,10,11,11,12,12,13,13,14,14,15,15,16,16,17,17,18,18,19,19,20,20,21,21,22,22,23,23,24,24,25,25,26,26,27,27,28,28,29,29,30,30],"right_children":[2,4,6,8,10,12,14,16,18,20,22,24,26,28,30,32,34,36,38,40,42,44,46,48,50,52,54,56,58,60,62,-1,-1,-1,-1,-1,-1,-1,-1,-1,-1,-1,-1,-1,-1,-1,-1,-1,-1,-1,-1,-1,-1,-1,-1,-1,-1,-1,-1,-1,-1,-1,-1],"split_conditions":[5E0,1E1,1.4411016E4,2.0296422E4,3.468496E4,9E0,1.2E1,1E0,2.089262E4,1.1196701E4,3E0,2E0,1.4202709E4,3.336492E4,2.2E1,3E0,8E0,6E0,1.9625147E5,4E0,2.1E1,1.4E1,3.553154E4,7.000043E3,7.520434E3,1E1,1.7E1,1E0,3.611997E4,4.576336E4,1.0912678E5,-4.7593698E-2,2.1549646E-2,1.6020318E-2,9.770222E-4,-4.0917285E-3,-7.583217E-2,4.111132E-3,1.919834E-2,-1.2451383E-2,-7.874572E-2,-5.9545445E-3,1.5818164E-3,1.7506982E-3,9.659115E-3,4.6517346E-2,-2.7978173E-3,-6.201895E-2,-2.4180941E-4,-6.838178E-2,-3.7246644E-2,1.1200111E-2,-1.423077E-2,-6.956925E-2,-2.6053414E-2,-2.2925434E-3,-1.8395366E-2,1.5580355E-2,-8.095591E-3,-6.9331587E-3,5.7909465E-3,1.598618E-2,-1.7740298E-2],"split_indices":[0,1,2,2,2,1,1,1,2,2,0,1,2,2,1,0,1,1,2,0,1,1,2,2,2,1,1,1,2,2,2,0,0,0,0,0,0,0,0,0,0,0,0,0,0,0,0,0,0,0,0,0,0,0,0,0,0,0,0,0,0,0,0],"split_type":[0,0,0,0,0,0,0,0,0,0,0,0,0,0,0,0,0,0,0,0,0,0,0,0,0,0,0,0,0,0,0,0,0,0,0,0,0,0,0,0,0,0,0,0,0,0,0,0,0,0,0,0,0,0,0,0,0,0,0,0,0,0,0],"sum_hessian":[1.0797337E4,7.9839707E3,2.813366E3,3.4126133E3,4.5713574E3,6.3155084E2,2.1818152E3,6.4723236E2,2.7653809E3,1.5719229E3,2.9994346E3,2.3936722E2,3.9218365E2,1.00313904E3,1.178676E3,4.2335457E1,6.048969E2,3.5574047E1,2.729807E3,8.8233795E1,1.4836891E3,1.8884803E3,1.1109541E3,5.020009E1,1.8916713E2,3.8513422E2,7.049433E0,5.560722E2,4.4706683E2,9.649875E2,2.1368857E2,1.7316277E1,2.501918E1,5.0622635E2,9.8670525E1,2.4414158E1,1.115989E1,2.6356287E3,9.4178185E1,7.2611595E1,1.5622198E1,9.6684247E2,5.168466E2,5.2298425E2,1.3654961E3,2.3908781E1,1.0870453E3,4.1021934E0,4.6097893E1,2.920918E1,1.5995795E2,2.2792732E1,3.623415E2,3.9154525E0,3.1339808E0,5.2447357E1,5.0362485E2,5.22279E1,3.9483893E2,5.858206E2,3.791669E2,1.9177383E2,2.1914726E1],"tree_param":{"num_deleted":"0","num_feature":"3","num_nodes":"63","size_leaf_vector":"1"}},{"base_weights":[-2.1930301E-4,5.857313E-2,-1.6724637E-1,1.3275978E-1,3.268556E-2,-4.1514668E-1,-9.559418E-2,9.289566E-2,2.791533E-1,9.286775E-2,-6.370202E-2,-6.703137E-1,-2.593435E-1,-2.2322533E-1,1.3020132E-2,-7.302513E-2,9.713662E-2,9.097716E-1,2.4155223E-1,-3.742983E-1,1.0214614E-1,-1.2666537E-1,6.334221E-2,-1.23105876E-1,-8.155519E-1,-2.4164307E-1,-1.0803148E0,-3.2561114E-1,-1.05144255E-1,-1.1360986E-1,1.0903879E-1,1.2724473E-3,8.268005E-3,3.4077846E-2,5.6883324E-2,1.2779407E-2,-4.987351E-2,3.7224364E-2,-3.0325128E-2,3.2833088E-3,9.340524E-3,-1.2864319E-2,-2.1703463E-4,1.55164795E-2,-5.965323E-4,-1.7127393E-2,2.2723997E-2,-6.699155E-2,-3.5699435E-2,-1.5783345E-2,-2.9767365E-3,-6.741537E-2,-2.5109768E-2,-2.0641342E-2,-1.1790173E-2,-1.801343E-3,-2.2054153E-2,-7.922385E-3,1.7329255E-2,2.0252062E-2,3.8054106E-3],"categories":[],"categories_nodes":[],"categories_segments":[],"categories_sizes":[],"default_left":[0,0,0,0,0,0,0,0,0,0,0,0,0,0,0,0,0,0,0,0,0,0,0,0,0,0,0,0,0,0,0,0,0,0,0,0,0,0,0,0,0,0,0,0,0,0,0,0,0,0,0,0,0,0,0,0,0,0,0,0,0],"id":12,"left_children":[1,3,5,7,9,11,13,15,17,19,21,23,25,27,29,-1,31,33,35,37,39,41,43,45,47,49,51,53,55,57,59,-1,-1,-1,-1,-1,-1,-1,-1,-1,-1,-1,-1,-1,-1,-1,-1,-1,-1,-1,-1,-1,-1,-1,-1,-1,-1,-1,-1,-1,-1],"loss_changes":[1.0598165E2,1.5326469E1,4.987046E1,1.2023106E1,3.434098E1,2.4862114E1,3.0238583E1,1.0842374E1,1.0246536E1,1.5834499E1,1.821194E1,1.88236E1,5.4445E0,1.2089695E1,1.4351077E1,0E0,7.922677E0,4.975834E-1,7.5228615E0,1.8944134E1,1.1026489E1,2.4316916E1,1.403623E1,6.635066E0,9.0533905E0,5.17968E0,5.621071E-1,4.1058807E0,1.083193E1,1.055898E1,6.5118995E0,0E0,0E0,0E0,0E0,0E0,0E0,0E0,0E0,0E0,0E0,0E0,0E0,0E0,0E0,0E0,0E0,0E0,0E0,0E0,0E0,0E0,0E0,0E0,0E0,0E0,0E0,0E0,0E0,0E0,0E0],"parents":[2147483647,0,0,1,1,2,2,3,3,4,4,5,5,6,6,7,7,8,8,9,9,10,10,11,11,12,12,13,13,14,14,16,16,17,17,18,18,19,19,20,20,21,21,22,22,23,23,24,24,25,25,26,26,27,27,28,28,29,29,30,30],"right_children":[2,4,6,8,10,12,14,16,18,20,22,24,26,28,30,-1,32,34,36,38,40,42,44,46,48,50,52,54,56,58,60,-1,-1,-1,-1,-1,-1,-1,-1,-1,-1,-1,-1,-1,-1,-1,-1,-1,-1,-1,-1,-1,-1,-1,-1,-1,-1,-1,-1,-1,-1],"split_conditions":[5E0,6E0,1.4411016E4,4E0,3E0,9E0,1.2E1,8.054849E3,1.1935027E4,1.1682769E4,6.619721E4,2E0,1.4202709E4,3.2371451E4,6E0,-7.302513E-2,3E0,4E0,3.071408E5,8E0,7.267864E4,4E0,1.1E1,1.2601072E4,7.520434E3,2.1E1,1.7E1,6E0,1E1,2.3E1,1.7900006E4,1.2724473E-3,8.268005E-3,3.4077846E-2,5.6883324E-2,1.2779407E-2,-4.987351E-2,3.7224364E-2,-3.0325128E-2,3.2833088E-3,9.340524E-3,-1.2864319E-2,-2.1703463E-4,1.55164795E-2,-5.965323E-4,-1.7127393E-2,2.2723997E-2,-6.699155E-2,-3.5699435E-2,-1.5783345E-2,-2.9767365E-3,-6.741537E-2,-2.5109768E-2,-2.0641342E-2,-1.1790173E-2,-1.801343E-3,-2.2054153E-2,-7.922385E-3,1.7329255E-2,2.0252062E-2,3.8054106E-3],"split_indices":[0,1,2,0,0,1,1,2,2,2,2,1,2,2,0,0,1,1,2,1,2,0,1,2,2,1,1,0,1,1,2,0,0,0,0,0,0,0,0,0,0,0,0,0,0,0,0,0,0,0,0,0,0,0,0,0,0,0,0,0,0],"split_type":[0,0,0,0,0,0,0,0,0,0,0,0,0,0,0,0,0,0,0,0,0,0,0,0,0,0,0,0,0,0,0,0,0,0,0,0,0,0,0,0,0,0,0,0,0,0,0,0,0,0,0,0,0,0,0,0,0,0,0,0,0],"sum_hessian":[1.0790511E4,7.9816655E3,2.8088447E3,2.063659E3,5.918007E3,6.287429E2,2.1801018E3,1.6232654E3,4.4039365E2,3.6432695E3,2.274737E3,2.3711118E2,3.9163174E2,1.001821E3,1.1782809E3,3.484727E0,1.6197806E3,2.3475964E1,4.1691766E2,7.018378E1,3.5730857E3,1.5209531E3,7.5378406E2,5.0120792E1,1.8699039E2,3.8463327E2,6.9984956E0,5.356295E2,4.661915E2,5.080622E2,6.702187E2,7.905069E2,8.292737E2,1.3723682E1,9.752282E0,4.1303247E2,3.8851988E0,1.1683795E1,5.8499985E1,2.4983699E3,1.0747158E3,7.350002E2,7.8595294E2,1.7533788E2,5.7844617E2,3.6616158E1,1.3504631E1,2.8366692E1,1.586237E2,2.7295035E2,1.11682915E2,3.8715653E0,3.12693E0,2.6991144E2,2.6571805E2,3.8756052E2,7.8631004E1,4.635529E2,4.4509323E1,6.596656E1,6.0425214E2],"tree_param":{"num_deleted":"0","num_feature":"3","num_nodes":"61","size_leaf_vector":"1"}},{"base_weights":[-2.3475656E-4,5.5665515E-2,-1.592587E-1,1.2618499E-1,3.1063342E-2,-2.923037E-1,-3.6505725E-2,8.823366E-2,2.6572484E-1,8.8256486E-2,-6.0530394E-2,-3.6236233E-1,1.0072258E-1,-1.4227551E-1,4.336176E-2,-4.699658E-1,9.963639E-2,6.367074E-1,2.0606908E-1,-2.2438538E-1,1.00859076E-1,-1.20371975E-1,6.020729E-2,-8.7453765E-1,-3.2575974E-1,-1.4643599E-1,3.2743558E-1,-1.9636649E-1,-8.765015E-3,8.9130795E-1,2.3097502E-2,-8.458324E-2,-1.01737E-2,9.861609E-3,2.0021463E-3,2.653115E-2,5.8452483E-2,-7.7364884E-2,1.10829165E-2,1.391685E-2,-2.231254E-2,3.0036604E-3,8.991196E-3,-1.2228362E-2,-2.061933E-4,1.4756489E-2,-5.66764E-4,-6.224661E-2,-2.7662117E-2,5.33241E-3,-1.7575119E-2,4.337599E-4,-2.7795253E-2,1.9861594E-2,-1.0445153E-2,-8.91881E-3,-5.7494033E-2,-7.949795E-3,5.4950765E-3,2.9168362E-2,5.6697536E-2,-1.1281467E-2,4.2786887E-3],"categories":[],"categories_nodes":[],"categories_segments":[],"categories_sizes":[],"default_left":[0,0,0,0,0,0,0,0,0,0,0,0,0,0,0,0,0,0,0,0,0,0,0,0,0,0,0,0,0,0,0,0,0,0,0,0,0,0,0,0,0,0,0,0,0,0,0,0,0,0,0,0,0,0,0,0,0,0,0,0,0,0,0],"id":13,"left_children":[1,3,5,7,9,11,13,15,17,19,21,23,25,27,29,31,33,35,37,39,41,43,45,47,49,51,53,55,57,59,61,-1,-1,-1,-1,-1,-1,-1,-1,-1,-1,-1,-1,-1,-1,-1,-1,-1,-1,-1,-1,-1,-1,-1,-1,-1,-1,-1,-1,-1,-1,-1,-1],"loss_changes":[9.587451E1,1.3840876E1,4.5802048E1,1.0904907E1,3.1003859E1,3.709836E1,1.2340864E1,1.0382765E1,9.623095E0,1.4377117E1,1.6446024E1,2.113504E1,1.1502093E1,4.536685E0,1.4287849E1,1.0296426E1,9.25238E0,2.8006897E0,1.0761751E1,1.5904005E1,1.1270184E1,2.1966705E1,1.2686629E1,8.30986E0,1.1925377E1,6.260124E0,4.0856915E0,7.46607E0,3.2664073E0,7.8872395E-1,1.2673137E1,0E0,0E0,0E0,0E0,0E0,0E0,0E0,0E0,0E0,0E0,0E0,0E0,0E0,0E0,0E0,0E0,0E0,0E0,0E0,0E0,0E0,0E0,0E0,0E0,0E0,0E0,0E0,0E0,0E0,0E0,0E0,0E0],"parents":[2147483647,0,0,1,1,2,2,3,3,4,4,5,5,6,6,7,7,8,8,9,9,10,10,11,11,12,12,13,13,14,14,15,15,16,16,17,17,18,18,19,19,20,20,21,21,22,22,23,23,24,24,25,25,26,26,27,27,28,28,29,29,30,30],"right_children":[2,4,6,8,10,12,14,16,18,20,22,24,26,28,30,32,34,36,38,40,42,44,46,48,50,52,54,56,58,60,62,-1,-1,-1,-1,-1,-1,-1,-1,-1,-1,-1,-1,-1,-1,-1,-1,-1,-1,-1,-1,-1,-1,-1,-1,-1,-1,-1,-1,-1,-1,-1,-1],"split_conditions":[5E0,6E0,2.4972256E4,4E0,3E0,2.1E1,6E0,1.094433E4,1.5724327E4,1.3767655E4,6.619721E4,7.520434E3,1.2973689E4,6.2577164E4,2.5389227E4,1E0,2.9420426E4,1.4849789E4,1.6130277E4,1E0,2E0,4E0,1.1E1,9E0,1E0,1.094433E4,2.3282469E4,5.9827086E4,1.2E1,2.5171965E4,3.2371451E4,-8.458324E-2,-1.01737E-2,9.861609E-3,2.0021463E-3,2.653115E-2,5.8452483E-2,-7.7364884E-2,1.10829165E-2,1.391685E-2,-2.231254E-2,3.0036604E-3,8.991196E-3,-1.2228362E-2,-2.061933E-4,1.4756489E-2,-5.66764E-4,-6.224661E-2,-2.7662117E-2,5.33241E-3,-1.7575119E-2,4.337599E-4,-2.7795253E-2,1.9861594E-2,-1.0445153E-2,-8.91881E-3,-5.7494033E-2,-7.949795E-3,5.4950765E-3,2.9168362E-2,5.6697536E-2,-1.1281467E-2,4.2786887E-3],"split_indices":[0,1,2,0,0,1,0,2,2,2,2,2,2,2,2,0,2,2,2,0,0,0,1,1,1,2,2,2,1,2,2,0,0,0,0,0,0,0,0,0,0,0,0,0,0,0,0,0,0,0,0,0,0,0,0,0,0,0,0,0,0,0,0],"split_type":[0,0,0,0,0,0,0,0,0,0,0,0,0,0,0,0,0,0,0,0,0,0,0,0,0,0,0,0,0,0,0,0,0,0,0,0,0,0,0,0,0,0,0,0,0,0,0,0,0,0,0,0,0,0,0,0,0,0,0,0,0,0,0],"sum_hessian":[1.0783166E4,7.9790215E3,2.8041448E3,2.062619E3,5.916403E3,1.344997E3,1.4591477E3,1.6228711E3,4.3974783E2,3.6421812E3,2.2742217E3,1.141583E3,2.0341397E2,6.274389E2,8.3170874E2,3.1682823E1,1.5911882E3,5.9577686E1,3.8017014E2,1.4047626E2,3.5017048E3,1.5205767E3,7.536449E2,7.461478E1,1.0669683E3,9.748816E1,1.05925804E2,4.4619492E2,1.8124402E2,1.8409037E1,8.1329974E2,4.71582E0,2.6967005E1,6.0237445E2,9.8881384E2,5.1342915E1,8.234774E0,2.4844377E0,3.776857E2,4.293524E1,9.754102E1,2.3102212E3,1.1914838E3,7.346255E2,7.859512E2,1.7520467E2,5.7844025E2,3.3323807E1,4.129097E1,5.977435E1,1.0071939E3,7.141444E1,2.6073727E1,9.395798E1,1.1967831E1,4.3909738E2,7.0975375E0,7.983443E1,1.0140959E2,9.613127E0,8.79591E0,1.6275153E2,6.505482E2],"tree_param":{"num_deleted":"0","num_feature":"3","num_nodes":"63","size_leaf_vector":"1"}},{"base_weights":[-2.4309198E-4,5.289278E-2,-1.5158725E-1,9.909988E-2,1.839841E-2,-3.8107207E-1,-8.571497E-2,2.2115019E-1,7.051782E-2,-1.3792089E-1,5.459878E-2,-6.2679267E-1,-2.3302081E-1,-2.0474924E-1,1.5391624E-2,-1.5508728E-1,2.4768041E-1,-5.4753524E-1,7.876821E-2,-6.4280435E-2,-4.0403265E-1,4.731492E-1,4.486814E-2,-1.0628057E-1,-7.671765E-1,-2.1582998E-1,-1.0377141E0,-2.9440087E-1,-9.34609E-2,-1.0186955E-1,1.04236774E-1,-4.5617178E-2,1.9359803E-2,1.4567054E-2,1.1762452E-3,3.0959665E-3,-6.083974E-2,3.4437522E-3,1.7625263E-2,-1.2322203E-2,4.2137443E-3,-8.5103867E-4,-4.2144522E-2,4.473866E-2,1.4804107E-2,4.7874004E-3,-2.0695983E-3,-5.859809E-2,3.7439747E-4,-6.458822E-2,-3.3503316E-2,1.2373255E-2,-1.2283215E-2,-6.4932704E-2,-2.4027495E-2,-1.548468E-3,-1.6092733E-2,1.5230483E-2,-7.3398533E-3,-8.025277E-3,1.0102185E-2,1.9670686E-2,3.604072E-3],"categories":[],"categories_nodes":[],"categories_segments":[],"categories_sizes":[],"default_left":[0,0,0,0,0,0,0,0,0,0,0,0,0,0,0,0,0,0,0,0,0,0,0,0,0,0,0,0,0,0,0,0,0,0,0,0,0,0,0,0,0,0,0,0,0,0,0,0,0,0,0,0,0,0,0,0,0,0,0,0,0,0,0],"id":14,"left_children":[1,3,5,7,9,11,13,15,17,19,21,23,25,27,29,31,33,35,37,39,41,43,45,47,49,51,53,55,57,59,61,-1,-1,-1,-1,-1,-1,-1,-1,-1,-1,-1,-1,-1,-1,-1,-1,-1,-1,-1,-1,-1,-1,-1,-1,-1,-1,-1,-1,-1,-1,-1,-1],"loss_changes":[8.667716E1,1.2713375E1,4.2306732E1,1.1878635E1,2.5862007E1,2.2568024E1,2.6209316E1,6.491501E0,1.4137812E1,1.6815186E1,1.5090726E1,1.7028893E1,5.1877613E0,9.951069E0,1.2286543E1,1.809298E1,5.9072456E0,1.49784975E1,7.365038E0,1.826853E1,3.15904E1,6.0209656E0,1.59237995E1,6.1799154E0,8.521156E0,5.372473E0,5.274029E-1,3.9927063E0,9.549853E0,9.092983E0,6.209937E0,0E0,0E0,0E0,0E0,0E0,0E0,0E0,0E0,0E0,0E0,0E0,0E0,0E0,0E0,0E0,0E0,0E0,0E0,0E0,0E0,0E0,0E0,0E0,0E0,0E0,0E0,0E0,0E0,0E0,0E0,0E0,0E0],"parents":[2147483647,0,0,1,1,2,2,3,3,4,4,5,5,6,6,7,7,8,8,9,9,10,10,11,11,12,12,13,13,14,14,15,15,16,16,17,17,18,18,19,19,20,20,21,21,22,22,23,23,24,24,25,25,26,26,27,27,28,28,29,29,30,30],"right_children":[2,4,6,8,10,12,14,16,18,20,22,24,26,28,30,32,34,36,38,40,42,44,46,48,50,52,54,56,58,60,62,-1,-1,-1,-1,-1,-1,-1,-1,-1,-1,-1,-1,-1,-1,-1,-1,-1,-1,-1,-1,-1,-1,-1,-1,-1,-1,-1,-1,-1,-1,-1,-1],"split_conditions":[5E0,1E1,1.4411016E4,2.0296422E4,2.4072129E4,9E0,1.2E1,1E0,2.089262E4,4E0,2.5171965E4,2E0,1.4202709E4,3.336492E4,6E0,3E0,8E0,5E0,1.9625147E5,2E0,2E1,1.3E1,3E0,7.000043E3,7.520434E3,1E1,1.7E1,1E0,3.611997E4,7.077163E4,1.7900006E4,-4.5617178E-2,1.9359803E-2,1.4567054E-2,1.1762452E-3,3.0959665E-3,-6.083974E-2,3.4437522E-3,1.7625263E-2,-1.2322203E-2,4.2137443E-3,-8.5103867E-4,-4.2144522E-2,4.473866E-2,1.4804107E-2,4.7874004E-3,-2.0695983E-3,-5.859809E-2,3.7439747E-4,-6.458822E-2,-3.3503316E-2,1.2373255E-2,-1.2283215E-2,-6.4932704E-2,-2.4027495E-2,-1.548468E-3,-1.6092733E-2,1.5230483E-2,-7.3398533E-3,-8.025277E-3,1.0102185E-2,1.9670686E-2,3.604072E-3],"split_indices":[0,1,2,2,2,1,1,1,2,0,2,1,2,2,0,0,1,1,2,0,1,1,0,2,2,1,1,1,2,2,2,0,0,0,0,0,0,0,0,0,0,0,0,0,0,0,0,0,0,0,0,0,0,0,0,0,0,0,0,0,0,0,0],"split_type":[0,0,0,0,0,0,0,0,0,0,0,0,0,0,0,0,0,0,0,0,0,0,0,0,0,0,0,0,0,0,0,0,0,0,0,0,0,0,0,0,0,0,0,0,0,0,0,0,0,0,0,0,0,0,0,0,0,0,0,0,0,0,0],"sum_hessian":[1.0776326E4,7.9764873E3,2.7998384E3,3.4086035E3,4.567884E3,6.233692E2,2.176469E3,6.454943E2,2.7631091E3,8.5839215E2,3.7094917E3,2.3316003E2,3.9020917E2,9.991409E2,1.1773282E3,4.2199398E1,6.03295E2,3.5537792E1,2.7275713E3,6.733102E2,1.8508192E2,8.319842E1,3.6262935E3,4.9899788E1,1.8326025E2,3.832891E2,6.9200687E0,5.524517E2,4.466892E2,5.0744138E2,6.6988684E2,1.7324574E1,2.4874825E1,5.0469208E2,9.8602875E1,1.90749E1,1.646289E1,2.6336401E3,9.393115E1,3.0214755E2,3.7116266E2,9.8902435E1,8.617949E1,2.340772E1,5.97907E1,2.2808447E3,1.3454487E3,3.9160905E0,4.5983696E1,2.6703926E1,1.5655634E2,2.2747656E1,3.6054144E2,3.8065145E0,3.1135545E0,5.2341312E1,5.0011038E2,5.222211E1,3.944671E2,4.2576718E2,8.16742E1,6.591052E1,6.039763E2],"tree_param":{"num_deleted":"0","num_feature":"3","num_nodes":"63","size_leaf_vector":"1"}},{"base_weights":[-2.6226422E-4,5.0259396E-2,-1.443454E-1,2.7439274E-2,1.1463302E-1,-3.6419895E-1,-8.148603E-2,1.070399E-1,-2.19529E-2,3.058441E-1,8.4730424E-2,-6.023428E-1,-2.2193602E-1,-1.9479583E-1,1.4645696E-2,2.7331632E-1,6.44602E-2,-4.0713948E-1,-1.1218486E-2,2.5674456E-1,7.9732955E-1,-4.006183E-3,1.6648561E-1,-1.0232528E-1,-7.3863584E-1,-2.0531826E-1,-1.0057039E0,-2.9718414E-1,-9.7286664E-2,-3.212712E-2,2.2531712E-1,7.821521E-3,2.2192826E-2,1.3867557E-2,3.329091E-4,-1.1142073E-2,-5.948291E-2,1.5824003E-3,-3.9565414E-3,2.108265E-3,1.5374019E-2,5.1903218E-2,-6.620617E-2,1.6446551E-2,-3.3754525E-3,1.0476693E-2,-1.2172009E-3,-5.7273604E-2,3.5605938E-4,-6.3486986E-2,-3.212993E-2,1.1768563E-2,-1.1688379E-2,-6.31381E-2,-2.3167135E-2,-9.226415E-3,-2.6619686E-2,-5.482379E-3,5.4072496E-2,-6.0705855E-3,5.2831583E-3,1.4637008E-2,-1.7507602E-2],"categories":[],"categories_nodes":[],"categories_segments":[],"categories_sizes":[],"default_left":[0,0,0,0,0,0,0,0,0,0,0,0,0,0,0,0,0,0,0,0,0,0,0,0,0,0,0,0,0,0,0,0,0,0,0,0,0,0,0,0,0,0,0,0,0,0,0,0,0,0,0,0,0,0,0,0,0,0,0,0,0,0,0],"id":15,"left_children":[1,3,5,7,9,11,13,15,17,19,21,23,25,27,29,31,33,35,37,39,41,43,45,47,49,51,53,55,57,59,61,-1,-1,-1,-1,-1,-1,-1,-1,-1,-1,-1,-1,-1,-1,-1,-1,-1,-1,-1,-1,-1,-1,-1,-1,-1,-1,-1,-1,-1,-1,-1,-1],"loss_changes":[7.840799E1,1.1712206E1,3.861565E1,2.315622E1,1.1906225E1,2.092096E1,2.3704187E1,1.5948805E1,1.5025071E1,6.596527E0,1.3102884E1,1.5723335E1,4.8813305E0,9.942776E0,1.1615986E1,9.089127E0,2.2107431E1,1.3943758E1,1.0300546E1,2.7927341E0,1.4205281E1,1.8353094E1,7.727251E0,5.809865E0,8.467751E0,4.8666134E0,5.098896E-1,1.2798672E1,7.594131E0,1.1884119E1,8.412104E0,0E0,0E0,0E0,0E0,0E0,0E0,0E0,0E0,0E0,0E0,0E0,0E0,0E0,0E0,0E0,0E0,0E0,0E0,0E0,0E0,0E0,0E0,0E0,0E0,0E0,0E0,0E0,0E0,0E0,0E0,0E0,0E0],"parents":[2147483647,0,0,1,1,2,2,3,3,4,4,5,5,6,6,7,7,8,8,9,9,10,10,11,11,12,12,13,13,14,14,15,15,16,16,17,17,18,18,19,19,20,20,21,21,22,22,23,23,24,24,25,25,26,26,27,27,28,28,29,29,30,30],"right_children":[2,4,6,8,10,12,14,16,18,20,22,24,26,28,30,32,34,36,38,40,42,44,46,48,50,52,54,56,58,60,62,-1,-1,-1,-1,-1,-1,-1,-1,-1,-1,-1,-1,-1,-1,-1,-1,-1,-1,-1,-1,-1,-1,-1,-1,-1,-1,-1,-1,-1,-1,-1,-1],"split_conditions":[5E0,7.267864E4,1.4411016E4,8E0,7.970604E4,9E0,1.2E1,1.8719355E4,1.1196701E4,2.1E1,1.4E1,2E0,1.4202709E4,6E0,2.2E1,5E0,1E0,4E0,3E0,6E0,4E0,2E0,4E0,7.000043E3,7.520434E3,1E1,1.7E1,8E0,2.5368784E5,4.576336E4,1.0912678E5,7.821521E-3,2.2192826E-2,1.3867557E-2,3.329091E-4,-1.1142073E-2,-5.948291E-2,1.5824003E-3,-3.9565414E-3,2.108265E-3,1.5374019E-2,5.1903218E-2,-6.620617E-2,1.6446551E-2,-3.3754525E-3,1.0476693E-2,-1.2172009E-3,-5.7273604E-2,3.5605938E-4,-6.3486986E-2,-3.212993E-2,1.1768563E-2,-1.1688379E-2,-6.31381E-2,-2.3167135E-2,-9.226415E-3,-2.6619686E-2,-5.482379E-3,5.4072496E-2,-6.0705855E-3,5.2831583E-3,1.4637008E-2,-1.7507602E-2],"split_indices":[0,2,2,1,2,1,1,2,2,1,1,1,2,0,1,1,0,0,0,1,0,1,0,2,2,1,1,1,2,2,2,0,0,0,0,0,0,0,0,0,0,0,0,0,0,0,0,0,0,0,0,0,0,0,0,0,0,0,0,0,0,0,0],"split_type":[0,0,0,0,0,0,0,0,0,0,0,0,0,0,0,0,0,0,0,0,0,0,0,0,0,0,0,0,0,0,0,0,0,0,0,0,0,0,0,0,0,0,0,0,0,0,0,0,0,0,0,0,0,0,0,0,0,0,0,0,0,0,0],"sum_hessian":[1.0769339E4,7.973976E3,2.795363E3,5.8881006E3,2.0858752E3,6.2046484E2,2.1748982E3,2.2541448E3,3.6339558E3,2.8083807E2,1.8050372E3,2.3082939E2,3.8963544E2,9.9778705E2,1.1771111E3,4.584499E2,1.795695E3,9.752445E1,3.5364314E3,2.5671457E2,2.4123482E1,8.6601764E2,9.3901965E2,4.981696E1,1.8101244E2,3.8278152E2,6.853927E0,4.8571762E2,5.1206946E2,9.639455E2,2.131656E2,2.731523E2,1.8529756E2,3.8263E2,1.413065E3,7.997386E1,1.7550589E1,2.168317E3,1.3681146E3,4.9441315E1,2.0727325E2,2.2123652E1,1.9998301E0,1.3805157E2,7.2796606E2,7.6610095E2,1.7291872E2,3.8315897E0,4.5985367E1,2.5847836E1,1.551646E2,2.277141E1,3.600101E2,3.748851E0,3.105076E0,3.2962512E2,1.560925E2,5.0765286E2,4.416561E0,5.849996E2,3.7894592E2,1.9124973E2,2.1915876E1],"tree_param":{"num_deleted":"0","num_feature":"3","num_nodes":"63","size_leaf_vector":"1"}},{"base_weights":[-2.764958E-4,4.7759943E-2,-1.3745786E-1,9.029206E-2,1.6015984E-2,-2.5591913E-1,-2.8948558E-2,2.0095533E-1,6.442492E-2,-8.115427E-2,6.693719E-2,-3.207228E-1,1.04991905E-1,-1.2365365E-1,4.2477824E-2,-1.546376E-1,2.260564E-1,-5.2386427E-1,7.2273046E-2,-3.0466557E-1,-4.966568E-2,1.2108063E-1,-2.5022872E-2,-8.0604374E-1,-2.872494E-1,-1.15987316E-1,3.075778E-1,-1.7171904E-1,-5.2121063E-3,8.592092E-1,2.2984168E-2,-4.376042E-2,1.8159663E-2,1.3263439E-2,1.2610062E-3,-4.3057925E-3,-7.002141E-2,3.1423636E-3,1.667441E-2,-6.157734E-3,-4.9348835E-2,-5.6131263E-3,3.757008E-3,8.561578E-4,8.044553E-3,4.5118652E-2,-2.3123142E-3,-5.85817E-2,-2.5603384E-2,5.3042187E-3,-1.5542748E-2,1.5959028E-3,-2.543135E-2,1.8720636E-2,-1.0215249E-2,-7.4517773E-3,-4.4119325E-2,1.8177122E-2,-2.5146299E-3,2.8203333E-2,5.457249E-2,-1.0321298E-2,4.0258546E-3],"categories":[],"categories_nodes":[],"categories_segments":[],"categories_sizes":[],"default_left":[0,0,0,0,0,0,0,0,0,0,0,0,0,0,0,0,0,0,0,0,0,0,0,0,0,0,0,0,0,0,0,0,0,0,0,0,0,0,0,0,0,0,0,0,0,0,0,0,0,0,0,0,0,0,0,0,0,0,0,0,0,0,0],"id":16,"left_children":[1,3,5,7,9,11,13,15,17,19,21,23,25,27,29,31,33,35,37,39,41,43,45,47,49,51,53,55,57,59,61,-1,-1,-1,-1,-1,-1,-1,-1,-1,-1,-1,-1,-1,-1,-1,-1,-1,-1,-1,-1,-1,-1,-1,-1,-1,-1,-1,-1,-1,-1,-1,-1],"loss_changes":[7.093538E1,1.0762901E1,3.5878857E1,9.740232E0,2.2601105E1,3.1247025E1,9.869403E0,5.7925453E0,1.2795097E1,1.1039383E1,1.4924824E1,1.8152725E1,9.163977E0,3.5697613E0,1.3227033E1,1.6409414E1,4.7415295E0,1.3884065E1,6.694868E0,2.3875006E1,1.0773348E1,7.8046455E0,2.1917606E1,7.187973E0,9.876801E0,5.7220564E0,3.7253017E0,7.0601597E0,3.0452278E0,7.1193314E-1,1.0755814E1,0E0,0E0,0E0,0E0,0E0,0E0,0E0,0E0,0E0,0E0,0E0,0E0,0E0,0E0,0E0,0E0,0E0,0E0,0E0,0E0,0E0,0E0,0E0,0E0,0E0,0E0,0E0,0E0,0E0,0E0,0E0,0E0],"parents":[2147483647,0,0,1,1,2,2,3,3,4,4,5,5,6,6,7,7,8,8,9,9,10,10,11,11,12,12,13,13,14,14,15,15,16,16,17,17,18,18,19,19,20,20,21,21,22,22,23,23,24,24,25,25,26,26,27,27,28,28,29,29,30,30],"right_children":[2,4,6,8,10,12,14,16,18,20,22,24,26,28,30,32,34,36,38,40,42,44,46,48,50,52,54,56,58,60,62,-1,-1,-1,-1,-1,-1,-1,-1,-1,-1,-1,-1,-1,-1,-1,-1,-1,-1,-1,-1,-1,-1,-1,-1,-1,-1,-1,-1,-1,-1,-1,-1],"split_conditions":[5E0,1E1,2.4972256E4,2.0296422E4,3.468496E4,2.1E1,6E0,1E0,2.089262E4,1.3574525E4,3E0,7.520434E3,1.2973689E4,6.2577164E4,2.5389227E4,3E0,8E0,6E0,1.9625147E5,4E0,2.1E1,1.4E1,3.553154E4,9E0,1E0,1.094433E4,2.3282469E4,5.8472543E4,6.5546E4,2.5171965E4,3.2371451E4,-4.376042E-2,1.8159663E-2,1.3263439E-2,1.2610062E-3,-4.3057925E-3,-7.002141E-2,3.1423636E-3,1.667441E-2,-6.157734E-3,-4.9348835E-2,-5.6131263E-3,3.757008E-3,8.561578E-4,8.044553E-3,4.5118652E-2,-2.3123142E-3,-5.85817E-2,-2.5603384E-2,5.3042187E-3,-1.5542748E-2,1.5959028E-3,-2.543135E-2,1.8720636E-2,-1.0215249E-2,-7.4517773E-3,-4.4119325E-2,1.8177122E-2,-2.5146299E-3,2.8203333E-2,5.457249E-2,-1.0321298E-2,4.0258546E-3],"split_indices":[0,1,2,2,2,1,0,1,2,2,0,2,2,2,2,0,1,1,2,0,1,1,2,1,1,2,2,2,2,2,2,0,0,0,0,0,0,0,0,0,0,0,0,0,0,0,0,0,0,0,0,0,0,0,0,0,0,0,0,0,0,0,0],"split_type":[0,0,0,0,0,0,0,0,0,0,0,0,0,0,0,0,0,0,0,0,0,0,0,0,0,0,0,0,0,0,0,0,0,0,0,0,0,0,0,0,0,0,0,0,0,0,0,0,0,0,0,0,0,0,0,0,0,0,0,0,0,0,0],"sum_hessian":[1.076258E4,7.971776E3,2.790804E3,3.406173E3,4.565603E3,1.3335685E3,1.4572356E3,6.4405347E2,2.7621196E3,1.5696771E3,2.9959258E3,1.1306628E3,2.0290569E2,6.262079E2,8.310277E2,4.21254E1,6.019281E2,3.5497616E1,2.726622E3,1.9275986E2,1.3769172E3,1.885488E3,1.1104377E3,7.146292E1,1.0591998E3,9.72517E1,1.05653984E2,4.451211E2,1.8108679E2,1.8368324E1,8.126594E2,1.7325926E1,2.4799473E1,5.0333365E2,9.859443E1,2.4407145E1,1.1090471E1,2.632858E3,9.3764305E1,1.5318857E2,3.957129E1,9.170618E2,4.5985538E2,5.2250195E2,1.3629861E3,2.3914888E1,1.0865228E3,3.0521162E1,4.094176E1,5.9770252E1,9.994296E2,7.130876E1,2.5942938E1,9.3689766E1,1.196422E1,4.325252E2,1.2595889E1,1.8956875E1,1.6212991E2,9.598671E0,8.769653E0,1.624217E2,6.502377E2],"tree_param":{"num_deleted":"0","num_feature":"3","num_nodes":"63","size_leaf_vector":"1"}},{"base_weights":[-2.8089574E-4,4.5377925E-2,-1.3083015E-1,2.4140295E-2,1.0528763E-1,-3.3441925E-1,-7.303036E-2,1.1546231E-1,-1.3123589E-2,2.877688E-1,7.676356E-2,-5.6414914E-1,-1.990733E-1,-1.8044788E-1,1.718378E-2,1.1293796E-2,2.0557961E-1,3.9452355E-2,-9.666461E-2,2.4117947E-1,7.5504154E-1,-7.021857E-3,1.54E-1,-8.918226E-2,-6.95778E-1,-1.8292803E-1,-9.691071E-1,-3.8306335E-1,-1.1088954E-1,-1.6910072E-1,8.448232E-2,-7.0016156E-3,1.0188234E-2,-8.1571124E-2,1.07643055E-2,6.442194E-3,-9.0402487E-4,-1.0422739E-2,4.4228553E-4,1.851477E-3,1.4474723E-2,4.933492E-2,-6.3994065E-2,1.53678E-2,-3.3451E-3,9.673753E-3,-1.0417913E-3,-2.6731152E-2,8.073243E-3,-6.1567396E-2,-3.0182457E-2,-1.4894865E-2,-3.77621E-3,-6.1072856E-2,-2.2202868E-2,-2.7492598E-2,-3.6609215E-3,-6.8684826E-3,1.125186E-2,-3.8823002E-4,-2.4403302E-2,1.9241815E-2,2.182273E-3],"categories":[],"categories_nodes":[],"categories_segments":[],"categories_sizes":[],"default_left":[0,0,0,0,0,0,0,0,0,0,0,0,0,0,0,0,0,0,0,0,0,0,0,0,0,0,0,0,0,0,0,0,0,0,0,0,0,0,0,0,0,0,0,0,0,0,0,0,0,0,0,0,0,0,0,0,0,0,0,0,0,0,0],"id":17,"left_children":[1,3,5,7,9,11,13,15,17,19,21,23,25,27,29,31,33,35,37,39,41,43,45,47,49,51,53,55,57,59,61,-1,-1,-1,-1,-1,-1,-1,-1,-1,-1,-1,-1,-1,-1,-1,-1,-1,-1,-1,-1,-1,-1,-1,-1,-1,-1,-1,-1,-1,-1,-1,-1],"loss_changes":[6.4122795E1,1.0138098E1,3.2777023E1,2.0029833E1,1.0833704E1,1.9044243E1,2.1054699E1,1.6009699E1,1.836679E1,5.9477005E0,1.1681968E1,1.4183945E1,4.6619024E0,1.3934502E1,1.4828274E1,2.3102802E1,1.6656998E1,1.3202398E1,1.9052395E1,2.5292559E0,1.30759535E1,1.633743E1,6.4865265E0,5.7349415E0,8.0529175E0,4.7003946E0,4.858923E-1,1.303669E1,6.6106615E0,1.6151371E1,1.06384945E1,0E0,0E0,0E0,0E0,0E0,0E0,0E0,0E0,0E0,0E0,0E0,0E0,0E0,0E0,0E0,0E0,0E0,0E0,0E0,0E0,0E0,0E0,0E0,0E0,0E0,0E0,0E0,0E0,0E0,0E0,0E0,0E0],"parents":[2147483647,0,0,1,1,2,2,3,3,4,4,5,5,6,6,7,7,8,8,9,9,10,10,11,11,12,12,13,13,14,14,15,15,16,16,17,17,18,18,19,19,20,20,21,21,22,22,23,23,24,24,25,25,26,26,27,27,28,28,29,29,30,30],"right_children":[2,4,6,8,10,12,14,16,18,20,22,24,26,28,30,32,34,36,38,40,42,44,46,48,50,52,54,56,58,60,62,-1,-1,-1,-1,-1,-1,-1,-1,-1,-1,-1,-1,-1,-1,-1,-1,-1,-1,-1,-1,-1,-1,-1,-1,-1,-1,-1,-1,-1,-1,-1,-1],"split_conditions":[5E0,7.267864E4,1.4411016E4,6E0,7.970604E4,9E0,6E0,3E0,3E0,2.1E1,1.4E1,2E0,1.4202709E4,2.1123008E4,8E0,3E0,8.418921E3,1.2E1,4E0,6E0,4E0,2E0,4E0,6E0,7.520434E3,1.0454904E4,1.7E1,1.6E1,2.2E1,5E0,1.8519576E4,-7.0016156E-3,1.0188234E-2,-8.1571124E-2,1.07643055E-2,6.442194E-3,-9.0402487E-4,-1.0422739E-2,4.4228553E-4,1.851477E-3,1.4474723E-2,4.933492E-2,-6.3994065E-2,1.53678E-2,-3.3451E-3,9.673753E-3,-1.0417913E-3,-2.6731152E-2,8.073243E-3,-6.1567396E-2,-3.0182457E-2,-1.4894865E-2,-3.77621E-3,-6.1072856E-2,-2.2202868E-2,-2.7492598E-2,-3.6609215E-3,-6.8684826E-3,1.125186E-2,-3.8823002E-4,-2.4403302E-2,1.9241815E-2,2.182273E-3],"split_indices":[0,2,2,1,2,1,0,1,0,1,1,1,2,2,1,0,2,1,0,1,0,1,0,0,2,2,1,1,1,1,2,0,0,0,0,0,0,0,0,0,0,0,0,0,0,0,0,0,0,0,0,0,0,0,0,0,0,0,0,0,0,0,0],"split_type":[0,0,0,0,0,0,0,0,0,0,0,0,0,0,0,0,0,0,0,0,0,0,0,0,0,0,0,0,0,0,0,0,0,0,0,0,0,0,0,0,0,0,0,0,0,0,0,0,0,0,0,0,0,0,0,0,0,0,0,0,0,0,0],"sum_hessian":[1.0755553E4,7.9690703E3,2.7864822E3,5.8844653E3,2.084605E3,6.151045E2,2.1713777E3,1.7046957E3,4.17977E3,2.8057196E2,1.804033E3,2.2686546E2,3.8823904E2,9.907256E2,1.1806521E3,7.9122595E2,9.134698E2,2.565634E3,1.6141357E3,2.5651257E2,2.40594E1,8.657663E2,9.382667E2,4.9592903E1,1.7727255E2,3.8147815E2,6.760883E0,2.5204376E2,7.386818E2,3.1293243E2,8.6771967E2,4.431115E2,3.4811447E2,3.923127E0,9.0954663E2,1.00416925E3,1.5614648E3,7.832704E2,8.3086536E2,4.9427647E1,2.0708492E2,2.2062868E1,1.9965327E0,1.3785873E2,7.2790753E2,7.653554E2,1.7291133E2,1.7449436E1,3.2143463E1,2.4203802E1,1.5306876E2,1.833932E2,1.9808495E2,3.6704314E0,3.0904517E0,1.633424E2,8.870135E1,6.852562E2,5.3425632E1,2.0849683E2,1.0443561E2,1.0284845E2,7.648712E2],"tree_param":{"num_deleted":"0","num_feature":"3","num_nodes":"63","size_leaf_vector":"1"}},{"base_weights":[-2.9965502E-4,4.3116257E-2,-1.2459194E-1,1.0795236E-1,2.5269749E-2,-2.340428E-1,-2.4843536E-2,4.1618355E-2,2.0127468E-1,6.9941275E-2,-4.604644E-2,-2.9495096E-1,1.03581935E-1,-1.1196132E-1,4.0816005E-2,-1.4968593E-1,1.5667388E-1,3.3140564E-1,1.0737858E-1,-4.0959573E-1,7.7686526E-2,-6.919734E-2,1.3507827E-1,-7.606548E-1,-2.635934E-1,-9.4368136E-1,1.4014246E-1,-1.6951984E-1,-2.093755E-2,8.241724E-1,2.2157928E-2,-1.05875125E-2,2.1851348E-2,-1.5635427E-2,9.676884E-3,3.4478817E-2,1.44505E-2,8.150363E-3,-1.3567047E-2,-3.7100695E-2,4.213057E-4,2.1609673E-3,7.217684E-3,-8.162371E-3,9.300946E-4,1.493122E-2,-9.2026935E-4,-5.6623813E-2,-2.3816219E-2,5.364751E-3,-1.4298421E-2,-1.9525504E-2,-6.3922815E-2,-1.7161779E-3,1.4489929E-2,-4.5601744E-3,-2.127623E-2,4.5273993E-2,-3.5262674E-3,5.7850838E-2,3.0256158E-2,-9.734591E-3,3.8242412E-3],"categories":[],"categories_nodes":[],"categories_segments":[],"categories_sizes":[],"default_left":[0,0,0,0,0,0,0,0,0,0,0,0,0,0,0,0,0,0,0,0,0,0,0,0,0,0,0,0,0,0,0,0,0,0,0,0,0,0,0,0,0,0,0,0,0,0,0,0,0,0,0,0,0,0,0,0,0,0,0,0,0,0,0],"id":18,"left_children":[1,3,5,7,9,11,13,15,17,19,21,23,25,27,29,31,33,35,37,39,41,43,45,47,49,51,53,55,57,59,61,-1,-1,-1,-1,-1,-1,-1,-1,-1,-1,-1,-1,-1,-1,-1,-1,-1,-1,-1,-1,-1,-1,-1,-1,-1,-1,-1,-1,-1,-1,-1,-1],"loss_changes":[5.8015293E1,9.21682E0,3.0379875E1,1.0636074E1,1.9912333E1,2.7317863E1,8.340252E0,2.2173647E1,8.6905365E0,1.4304705E1,1.0104343E1,1.6219498E1,7.925392E0,3.2791042E0,1.2137817E1,1.3873385E1,1.09423685E1,4.338608E0,8.814957E0,8.516161E0,8.685562E0,1.763522E1,6.862797E0,6.9036484E0,8.785728E0,7.961788E-1,5.167757E0,7.6540766E0,1.1266526E1,7.0854855E-1,9.597135E0,0E0,0E0,0E0,0E0,0E0,0E0,0E0,0E0,0E0,0E0,0E0,0E0,0E0,0E0,0E0,0E0,0E0,0E0,0E0,0E0,0E0,0E0,0E0,0E0,0E0,0E0,0E0,0E0,0E0,0E0,0E0,0E0],"parents":[2147483647,0,0,1,1,2,2,3,3,4,4,5,5,6,6,7,7,8,8,9,9,10,10,11,11,12,12,13,13,14,14,15,15,16,16,17,17,18,18,19,19,20,20,21,21,22,22,23,23,24,24,25,25,26,26,27,27,28,28,29,29,30,30],"right_children":[2,4,6,8,10,12,14,16,18,20,22,24,26,28,30,32,34,36,38,40,42,44,46,48,50,52,54,56,58,60,62,-1,-1,-1,-1,-1,-1,-1,-1,-1,-1,-1,-1,-1,-1,-1,-1,-1,-1,-1,-1,-1,-1,-1,-1,-1,-1,-1,-1,-1,-1,-1,-1],"split_conditions":[5E0,5E0,2.4972256E4,3E0,3E0,2.1E1,6E0,2E0,2E0,1.1196701E4,1.2716853E5,7.520434E3,5.417048E3,5.159806E4,2.5389227E4,1.3078503E5,1.4202709E4,1.5938229E4,7.6448055E4,2.2E1,2E0,4E0,4E0,9E0,1E0,2.2E1,1.2973689E4,4.0733113E4,5.2655035E4,7E0,3.2371451E4,-1.05875125E-2,2.1851348E-2,-1.5635427E-2,9.676884E-3,3.4478817E-2,1.44505E-2,8.150363E-3,-1.3567047E-2,-3.7100695E-2,4.213057E-4,2.1609673E-3,7.217684E-3,-8.162371E-3,9.300946E-4,1.493122E-2,-9.2026935E-4,-5.6623813E-2,-2.3816219E-2,5.364751E-3,-1.4298421E-2,-1.9525504E-2,-6.3922815E-2,-1.7161779E-3,1.4489929E-2,-4.5601744E-3,-2.127623E-2,4.5273993E-2,-3.5262674E-3,5.7850838E-2,3.0256158E-2,-9.734591E-3,3.8242412E-3],"split_indices":[0,1,2,0,0,1,0,1,1,2,2,2,2,2,2,2,2,2,2,1,0,0,0,1,1,1,2,2,2,1,2,0,0,0,0,0,0,0,0,0,0,0,0,0,0,0,0,0,0,0,0,0,0,0,0,0,0,0,0,0,0,0,0],"split_type":[0,0,0,0,0,0,0,0,0,0,0,0,0,0,0,0,0,0,0,0,0,0,0,0,0,0,0,0,0,0,0,0,0,0,0,0,0,0,0,0,0,0,0,0,0,0,0,0,0,0,0,0,0,0,0,0,0,0,0,0,0,0,0],"sum_hessian":[1.0749018E4,7.966821E3,2.782197E3,1.7184973E3,6.248323E3,1.3259388E3,1.456258E3,1.0053414E3,7.1315594E2,3.8418552E3,2.4064683E3,1.1234014E3,2.0253748E2,6.2555707E2,8.30701E2,3.774498E2,6.278916E2,2.9784372E2,4.153122E2,6.024084E1,3.7816143E3,2.134287E3,2.7218118E2,6.9403534E1,1.0539978E3,5.9952126E0,1.9654225E2,3.8269745E2,2.4285963E2,1.832108E1,8.1237994E2,3.419196E2,3.5530224E1,4.5176884E1,5.827147E2,2.9907888E1,2.6793585E2,3.6261816E2,5.269404E1,3.312456E1,2.711628E1,2.4939043E3,1.28771E3,1.030047E3,1.1042401E3,1.313133E2,1.408679E2,2.8782042E1,4.0621494E1,5.975205E1,9.942458E2,3.0771375E0,2.9180753E0,9.1104805E1,1.0543745E2,2.9408725E2,8.8610214E1,1.146201E1,2.3139761E2,5.57218E0,1.2748899E1,1.6223268E2,6.501472E2],"tree_param":{"num_deleted":"0","num_feature":"3","num_nodes":"63","size_leaf_vector":"1"}},{"base_weights":[-2.914649E-4,4.0976487E-2,-1.1857963E-1,2.1037253E-2,9.722566E-2,-3.0706444E-1,-6.543928E-2,1.0501834E-1,-1.320921E-2,2.7244404E-1,6.985489E-2,-5.444718E-1,-1.8671978E-1,-1.6602427E-1,1.964442E-2,6.6454206E-3,1.9016673E-1,3.410648E-2,-8.8403106E-2,2.2798207E-1,7.1968687E-1,-9.744805E-3,1.4326759E-1,-7.656365E-2,-6.926985E-1,-1.4830539E-1,-5.148161E-1,-1.7483693E-1,6.844552E-1,-9.411076E-3,2.8606877E-1,-6.4603607E-3,8.993267E-3,-7.801672E-2,9.970641E-3,5.963074E-3,-1.0340962E-3,-9.504407E-3,3.737362E-4,1.5148953E-2,4.743554E-3,4.7170456E-2,-6.2044688E-2,1.4274142E-2,-3.2935017E-3,9.007135E-3,-9.956242E-4,-1.4046445E-2,2.2462681E-2,-5.967435E-2,-3.0318603E-2,-9.097747E-3,2.9098203E-2,-4.016817E-2,1.4338747E-2,-8.248213E-3,-6.356094E-2,5.5572856E-2,-5.60638E-2,-4.22747E-3,6.327619E-3,2.0534365E-2,-3.8116768E-2],"categories":[],"categories_nodes":[],"categories_segments":[],"categories_sizes":[],"default_left":[0,0,0,0,0,0,0,0,0,0,0,0,0,0,0,0,0,0,0,0,0,0,0,0,0,0,0,0,0,0,0,0,0,0,0,0,0,0,0,0,0,0,0,0,0,0,0,0,0,0,0,0,0,0,0,0,0,0,0,0,0,0,0],"id":19,"left_children":[1,3,5,7,9,11,13,15,17,19,21,23,25,27,29,31,33,35,37,39,41,43,45,47,49,51,53,55,57,59,61,-1,-1,-1,-1,-1,-1,-1,-1,-1,-1,-1,-1,-1,-1,-1,-1,-1,-1,-1,-1,-1,-1,-1,-1,-1,-1,-1,-1,-1,-1,-1,-1],"loss_changes":[5.245012E1,8.931933E0,2.7814991E1,1.6919E1,9.977495E0,1.7352638E1,1.8566761E1,1.427187E1,1.4872117E1,5.4290314E0,1.0544111E1,1.4163994E1,5.052454E0,7.570511E0,9.106172E0,1.8652344E1,1.5094025E1,1.1973467E1,1.57406E1,2.5398483E0,1.2123061E1,1.437697E1,5.651457E0,5.546271E0,6.000778E0,9.091949E0,1.0001812E1,1.0449015E1,9.264242E0,1.0853248E1,1.54255905E1,0E0,0E0,0E0,0E0,0E0,0E0,0E0,0E0,0E0,0E0,0E0,0E0,0E0,0E0,0E0,0E0,0E0,0E0,0E0,0E0,0E0,0E0,0E0,0E0,0E0,0E0,0E0,0E0,0E0,0E0,0E0,0E0],"parents":[2147483647,0,0,1,1,2,2,3,3,4,4,5,5,6,6,7,7,8,8,9,9,10,10,11,11,12,12,13,13,14,14,15,15,16,16,17,17,18,18,19,19,20,20,21,21,22,22,23,23,24,24,25,25,26,26,27,27,28,28,29,29,30,30],"right_children":[2,4,6,8,10,12,14,16,18,20,22,24,26,28,30,32,34,36,38,40,42,44,46,48,50,52,54,56,58,60,62,-1,-1,-1,-1,-1,-1,-1,-1,-1,-1,-1,-1,-1,-1,-1,-1,-1,-1,-1,-1,-1,-1,-1,-1,-1,-1,-1,-1,-1,-1,-1,-1],"split_conditions":[5E0,7.267864E4,1.4411016E4,6E0,7.970604E4,8E0,1.2E1,3E0,3E0,2.1E1,1.4E1,2E0,1.3574525E4,2.3555731E5,2.3E1,3E0,8.418921E3,1.2E1,4E0,1.5E1,4E0,2E0,4E0,1.2601072E4,7.520434E3,1.3386402E4,2.1E1,1.7896825E5,8E0,5.058932E4,8.073666E4,-6.4603607E-3,8.993267E-3,-7.801672E-2,9.970641E-3,5.963074E-3,-1.0340962E-3,-9.504407E-3,3.737362E-4,1.5148953E-2,4.743554E-3,4.7170456E-2,-6.2044688E-2,1.4274142E-2,-3.2935017E-3,9.007135E-3,-9.956242E-4,-1.4046445E-2,2.2462681E-2,-5.967435E-2,-3.0318603E-2,-9.097747E-3,2.9098203E-2,-4.016817E-2,1.4338747E-2,-8.248213E-3,-6.356094E-2,5.5572856E-2,-5.60638E-2,-4.22747E-3,6.327619E-3,2.0534365E-2,-3.8116768E-2],"split_indices":[0,2,2,1,2,1,1,1,0,1,1,1,2,2,1,0,2,1,0,1,0,1,0,2,2,2,1,2,1,2,2,0,0,0,0,0,0,0,0,0,0,0,0,0,0,0,0,0,0,0,0,0,0,0,0,0,0,0,0,0,0,0,0],"split_type":[0,0,0,0,0,0,0,0,0,0,0,0,0,0,0,0,0,0,0,0,0,0,0,0,0,0,0,0,0,0,0,0,0,0,0,0,0,0,0,0,0,0,0,0,0,0,0,0,0,0,0,0,0,0,0,0,0,0,0,0,0,0,0],"sum_hessian":[1.0742654E4,7.964635E3,2.7780198E3,5.881228E3,2.083407E3,6.099159E2,2.1681038E3,1.7029911E3,4.178237E3,2.802685E2,1.8031384E3,2.0398491E2,4.05931E2,9.9310956E2,1.1749943E3,7.906371E2,9.1235406E2,2.564852E3,1.6133845E3,2.562987E2,2.39698E1,8.6553064E2,9.376078E2,4.9438534E1,1.5454637E2,3.6468475E2,4.1246243E1,9.8371075E2,9.398785E0,1.0603231E3,1.1467121E2,4.432555E2,3.473816E2,3.912269E0,9.0844183E2,1.0036892E3,1.561163E3,7.8250336E2,8.3088116E2,1.6311873E2,9.317997E1,2.1980423E1,1.9893792E0,1.3760738E2,7.279232E2,7.646987E2,1.729091E2,3.5936935E1,1.35015955E1,2.0837967E1,1.337084E2,3.4933865E2,1.534608E1,3.03272E1,1.0919041E1,9.760719E2,7.638844E0,7.9122543E0,1.4865301E0,6.831615E2,3.7716162E2,1.03032524E2,1.1638684E1],"tree_param":{"num_deleted":"0","num_feature":"3","num_nodes":"63","size_leaf_vector":"1"}},{"base_weights":[-3.0165003E-4,3.8934924E-2,-1.1290642E-1,1.9979732E-2,9.241264E-2,-2.141229E-1,-2.1102559E-2,9.978689E-2,-1.25521105E-2,1.7334539E-1,3.723811E-2,-3.11324E-1,-3.1615894E-2,-1.03255674E-1,4.0791605E-2,6.3197776E-3,1.8073815E-1,3.24068E-2,-8.4012754E-2,1.4305906E-1,6.6399413E-1,-1.0328116E-1,1.051598E-1,-5.5591846E-1,-2.3690371E-1,-1.1268853E-1,1.7643563E-1,-4.102839E-1,-8.670155E-2,7.9331774E-1,2.2884361E-2,-6.1366833E-3,8.551899E-3,-7.520286E-2,9.480616E-3,5.667031E-3,-9.823908E-4,-9.035041E-3,3.550696E-4,5.2494877E-3,1.419268E-2,4.134369E-2,-4.3699324E-2,-7.4637023E-4,-2.4140185E-2,6.263791E-3,-2.7902236E-2,3.1168677E-3,-3.0546322E-2,-9.634537E-3,-4.1039586E-2,-7.164636E-3,3.478053E-2,-6.18318E-2,1.0920263E-2,-7.180997E-2,-8.530756E-3,3.8828214E-3,-6.1082887E-3,2.5502462E-2,5.1006515E-2,-9.041326E-3,3.6931161E-3],"categories":[],"categories_nodes":[],"categories_segments":[],"categories_sizes":[],"default_left":[0,0,0,0,0,0,0,0,0,0,0,0,0,0,0,0,0,0,0,0,0,0,0,0,0,0,0,0,0,0,0,0,0,0,0,0,0,0,0,0,0,0,0,0,0,0,0,0,0,0,0,0,0,0,0,0,0,0,0,0,0,0,0],"id":20,"left_children":[1,3,5,7,9,11,13,15,17,19,21,23,25,27,29,31,33,35,37,39,41,43,45,47,49,51,53,55,57,59,61,-1,-1,-1,-1,-1,-1,-1,-1,-1,-1,-1,-1,-1,-1,-1,-1,-1,-1,-1,-1,-1,-1,-1,-1,-1,-1,-1,-1,-1,-1,-1,-1],"loss_changes":[4.7442757E1,8.07032E0,2.5778587E1,1.5268854E1,9.297913E0,2.3399845E1,7.4083743E0,1.2884596E1,1.3427485E1,1.2452528E1,1.1848288E1,1.5539429E1,7.7735834E0,3.1458979E0,1.1182571E1,1.6845346E1,1.392948E1,1.0810997E1,1.4219572E1,4.239767E0,1.2951509E1,1.3561635E1,1.1231154E1,6.8430862E0,1.692714E1,8.297602E0,7.937768E0,7.562941E0,3.4788055E0,7.190113E-1,8.455048E0,0E0,0E0,0E0,0E0,0E0,0E0,0E0,0E0,0E0,0E0,0E0,0E0,0E0,0E0,0E0,0E0,0E0,0E0,0E0,0E0,0E0,0E0,0E0,0E0,0E0,0E0,0E0,0E0,0E0,0E0,0E0,0E0],"parents":[2147483647,0,0,1,1,2,2,3,3,4,4,5,5,6,6,7,7,8,8,9,9,10,10,11,11,12,12,13,13,14,14,15,15,16,16,17,17,18,18,19,19,20,20,21,21,22,22,23,23,24,24,25,25,26,26,27,27,28,28,29,29,30,30],"right_children":[2,4,6,8,10,12,14,16,18,20,22,24,26,28,30,32,34,36,38,40,42,44,46,48,50,52,54,56,58,60,62,-1,-1,-1,-1,-1,-1,-1,-1,-1,-1,-1,-1,-1,-1,-1,-1,-1,-1,-1,-1,-1,-1,-1,-1,-1,-1,-1,-1,-1,-1,-1,-1],"split_conditions":[5E0,7.267864E4,2.4972256E4,6E0,1.0114935E5,1.7E1,6E0,3E0,3E0,2.2E1,1.2716853E5,1.1428554E4,2.2E1,1E0,2.5389227E4,3E0,8.418921E3,1.2E1,4E0,4E0,4E0,4E0,2.2E1,1E0,2.3646387E4,2.4274438E4,5.417048E3,3.0160236E4,5E0,2.5171965E4,3.2371451E4,-6.1366833E-3,8.551899E-3,-7.520286E-2,9.480616E-3,5.667031E-3,-9.823908E-4,-9.035041E-3,3.550696E-4,5.2494877E-3,1.419268E-2,4.134369E-2,-4.3699324E-2,-7.4637023E-4,-2.4140185E-2,6.263791E-3,-2.7902236E-2,3.1168677E-3,-3.0546322E-2,-9.634537E-3,-4.1039586E-2,-7.164636E-3,3.478053E-2,-6.18318E-2,1.0920263E-2,-7.180997E-2,-8.530756E-3,3.8828214E-3,-6.1082887E-3,2.5502462E-2,5.1006515E-2,-9.041326E-3,3.6931161E-3],"split_indices":[0,2,2,1,2,1,0,1,0,1,2,2,1,1,2,0,2,1,0,0,0,0,1,1,2,2,2,2,1,2,2,0,0,0,0,0,0,0,0,0,0,0,0,0,0,0,0,0,0,0,0,0,0,0,0,0,0,0,0,0,0,0,0],"split_type":[0,0,0,0,0,0,0,0,0,0,0,0,0,0,0,0,0,0,0,0,0,0,0,0,0,0,0,0,0,0,0,0,0,0,0,0,0,0,0,0,0,0,0,0,0,0,0,0,0,0,0,0,0,0,0,0,0,0,0,0,0,0,0],"sum_hessian":[1.0735972E4,7.9622275E3,2.7737446E3,5.879582E3,2.0826458E3,1.3186078E3,1.4551367E3,1.702048E3,4.1775337E3,8.433851E2,1.2392606E3,8.599191E2,4.5868872E2,6.2495526E2,8.3018146E2,7.904568E2,9.115911E2,2.564589E3,1.6129448E3,7.955685E2,4.781657E1,4.0365057E2,8.3561005E2,1.9909404E2,6.608251E2,3.303987E2,1.2829001E2,3.0755257E1,5.942E2,1.828951E1,8.1189197E2,4.4335324E2,3.4710358E2,3.8935752E0,9.076976E2,1.0033761E3,1.561213E3,7.820595E2,8.3088525E2,6.276142E2,1.6795428E2,4.3655594E1,4.1609764E0,3.2826825E2,7.538231E1,8.1179803E2,2.3811983E1,1.6255789E1,1.8283824E2,6.15545E2,4.528009E1,3.191381E2,1.1260633E1,2.8793786E0,1.2541062E2,4.87881E0,2.5876448E1,1.05246796E2,4.8895322E2,9.577208E0,8.712303E0,1.6199669E2,6.4989526E2],"tree_param":{"num_deleted":"0","num_feature":"3","num_nodes":"63","size_leaf_vector":"1"}},{"base_weights":[-3.0931534E-4,3.698806E-2,-1.07468136E-1,-9.7284913E-1,3.7920836E-2,-2.8129736E-1,-5.879669E-2,1.744712E-2,-7.017031E-2,9.4619595E-2,2.2322448E-2,-5.0790685E-1,-1.6798377E-1,-1.5503752E-1,2.185099E-2,3.62276E-2,1.7736064E-1,6.048988E-2,-3.8645785E-2,-6.2462892E-2,-6.516731E-1,-1.307032E-1,-4.879653E-1,-3.4548423E-1,-9.005098E-2,-1.4712821E-1,8.274883E-2,-3.8164195E-3,9.40096E-3,1.0533157E-2,-9.53698E-3,-1.7659266E-2,3.4241197E-3,3.5798915E-2,-2.311275E-3,-2.4768347E-2,9.013872E-3,-5.848986E-2,-2.8286848E-2,-8.140177E-3,2.8057411E-2,-3.818569E-2,1.3547497E-2,-2.490749E-2,-3.2048605E-3,-5.682741E-3,1.044827E-2,2.926742E-4,-2.2533162E-2,1.9286212E-2,2.07921E-3],"categories":[],"categories_nodes":[],"categories_segments":[],"categories_sizes":[],"default_left":[0,0,0,0,0,0,0,0,0,0,0,0,0,0,0,0,0,0,0,0,0,0,0,0,0,0,0,0,0,0,0,0,0,0,0,0,0,0,0,0,0,0,0,0,0,0,0,0,0,0,0],"id":21,"left_children":[1,3,5,7,9,11,13,-1,-1,15,17,19,21,23,25,27,29,31,33,35,37,39,41,43,45,47,49,-1,-1,-1,-1,-1,-1,-1,-1,-1,-1,-1,-1,-1,-1,-1,-1,-1,-1,-1,-1,-1,-1,-1,-1],"loss_changes":[4.2891853E1,7.5356674E0,2.3426159E1,4.6920633E0,7.032915E0,1.5471622E1,1.6814903E1,0E0,0E0,8.283813E0,1.4521859E1,1.286113E1,4.77207E0,1.2192488E1,1.2148115E1,1.7222874E1,8.739859E0,1.2712868E1,1.3777086E1,5.3711376E0,6.115097E0,8.185226E0,8.982892E0,1.07472E1,5.2305717E0,1.4526861E1,1.0803979E1,0E0,0E0,0E0,0E0,0E0,0E0,0E0,0E0,0E0,0E0,0E0,0E0,0E0,0E0,0E0,0E0,0E0,0E0,0E0,0E0,0E0,0E0,0E0,0E0],"parents":[2147483647,0,0,1,1,2,2,3,3,4,4,5,5,6,6,9,9,10,10,11,11,12,12,13,13,14,14,15,15,16,16,17,17,18,18,19,19,20,20,21,21,22,22,23,23,24,24,25,25,26,26],"right_children":[2,4,6,8,10,12,14,-1,-1,16,18,20,22,24,26,28,30,32,34,36,38,40,42,44,46,48,50,-1,-1,-1,-1,-1,-1,-1,-1,-1,-1,-1,-1,-1,-1,-1,-1,-1,-1,-1,-1,-1,-1,-1,-1],"split_conditions":[5E0,7.000043E3,1.4411016E4,1E0,5E0,8E0,6E0,1.744712E-2,-7.017031E-2,3E0,3E0,2E0,1.3574525E4,2.1123008E4,8E0,3E0,8.857628E4,1.1682769E4,8.819703E3,6E0,7.520434E3,1.3386402E4,2.1E1,1.6E1,2.2E1,5E0,1.8519576E4,-3.8164195E-3,9.40096E-3,1.0533157E-2,-9.53698E-3,-1.7659266E-2,3.4241197E-3,3.5798915E-2,-2.311275E-3,-2.4768347E-2,9.013872E-3,-5.848986E-2,-2.8286848E-2,-8.140177E-3,2.8057411E-2,-3.818569E-2,1.3547497E-2,-2.490749E-2,-3.2048605E-3,-5.682741E-3,1.044827E-2,2.926742E-4,-2.2533162E-2,1.9286212E-2,2.07921E-3],"split_indices":[0,2,2,0,1,1,0,0,0,1,0,1,2,2,1,0,2,2,2,0,2,2,1,1,1,1,2,0,0,0,0,0,0,0,0,0,0,0,0,0,0,0,0,0,0,0,0,0,0,0,0],"split_type":[0,0,0,0,0,0,0,0,0,0,0,0,0,0,0,0,0,0,0,0,0,0,0,0,0,0,0,0,0,0,0,0,0,0,0,0,0,0,0,0,0,0,0,0,0,0,0,0,0,0,0],"sum_hessian":[1.0729708E4,7.959873E3,2.7698347E3,6.3841243E0,7.9534893E3,6.0484863E2,2.164986E3,1.6151724E0,4.768952E0,1.7149031E3,6.238586E3,2.0046587E2,4.0438278E2,9.866481E2,1.178338E3,1.00622675E3,7.086764E2,3.8367227E3,2.4018635E3,4.926332E1,1.5120255E2,3.6344662E2,4.0936146E1,2.4992183E2,7.3672626E2,3.1178412E2,8.6655383E2,5.7807306E2,4.2815366E2,6.502731E2,5.8403316E1,7.190464E1,3.7648179E3,2.2955868E1,2.3789077E3,1.7325043E1,3.1938278E1,1.9716402E1,1.3148615E2,3.4806204E2,1.5384599E1,3.0021605E1,1.091454E1,1.6151959E2,8.840224E1,6.833998E2,5.332649E1,2.079553E2,1.03828804E2,1.0265243E2,7.639014E2],"tree_param":{"num_deleted":"0","num_feature":"3","num_nodes":"51","size_leaf_vector":"1"}},{"base_weights":[-3.1437512E-4,3.5144035E-2,-1.023197E-1,1.6858615E-2,8.672943E-2,-1.9575846E-1,-1.7977618E-2,9.0019874E-2,-1.29407095E-2,2.4887718E-1,6.1432995E-2,-2.488924E-1,9.6104495E-2,-9.447395E-2,3.9675128E-2,4.056641E-3,1.6454583E-1,2.7954787E-2,-7.7946626E-2,1.8574181E-1,5.2117217E-1,-1.39917685E-2,1.3104075E-1,-6.9169116E-1,-2.2023074E-1,-8.7893784E-1,1.2971886E-1,-1.0243376E-1,5.8564134E-2,-2.7558284E-2,1.0957234E-1,-5.63839E-3,7.6735914E-3,-7.257534E-2,8.650601E-3,5.237313E-3,-1.0709151E-3,-8.502163E-3,4.3907404E-4,1.3950544E-2,-2.324892E-3,-6.3288696E-3,3.673372E-2,1.3338356E-2,-3.3637774E-3,7.092667E-3,-2.0693703E-2,-5.3709447E-2,-2.1209018E-2,-1.0409896E-2,-4.3169502E-2,-1.7981017E-2,-5.992482E-2,2.6183104E-2,3.9553433E-3,-4.2735293E-4,-8.489376E-3,-1.8278249E-4,-4.4409845E-2,3.4269985E-2,3.3648647E-3],"categories":[],"categories_nodes":[],"categories_segments":[],"categories_sizes":[],"default_left":[0,0,0,0,0,0,0,0,0,0,0,0,0,0,0,0,0,0,0,0,0,0,0,0,0,0,0,0,0,0,0,0,0,0,0,0,0,0,0,0,0,0,0,0,0,0,0,0,0,0,0,0,0,0,0,0,0,0,0,0,0],"id":22,"left_children":[1,3,5,7,9,11,13,15,17,19,21,23,25,27,29,31,33,35,37,39,41,43,45,47,49,51,53,55,-1,57,59,-1,-1,-1,-1,-1,-1,-1,-1,-1,-1,-1,-1,-1,-1,-1,-1,-1,-1,-1,-1,-1,-1,-1,-1,-1,-1,-1,-1,-1,-1],"loss_changes":[3.8793964E1,7.505925E0,2.179989E1,1.28146515E1,8.527234E0,2.0376987E1,6.421524E0,1.0897855E1,1.110694E1,4.729437E0,9.467398E0,1.3942482E1,6.762632E0,6.4239545E0,3.9059453E0,1.3824351E1,1.2717646E1,9.72658E0,1.2887823E1,4.9830008E0,7.324045E0,1.29762745E1,5.5836277E0,6.4049606E0,7.903927E0,7.1222305E-1,3.8857098E0,3.936285E0,0E0,8.721567E0,9.871018E0,0E0,0E0,0E0,0E0,0E0,0E0,0E0,0E0,0E0,0E0,0E0,0E0,0E0,0E0,0E0,0E0,0E0,0E0,0E0,0E0,0E0,0E0,0E0,0E0,0E0,0E0,0E0,0E0,0E0,0E0],"parents":[2147483647,0,0,1,1,2,2,3,3,4,4,5,5,6,6,7,7,8,8,9,9,10,10,11,11,12,12,13,13,14,14,15,15,16,16,17,17,18,18,19,19,20,20,21,21,22,22,23,23,24,24,25,25,26,26,27,27,29,29,30,30],"right_children":[2,4,6,8,10,12,14,16,18,20,22,24,26,28,30,32,34,36,38,40,42,44,46,48,50,52,54,56,-1,58,60,-1,-1,-1,-1,-1,-1,-1,-1,-1,-1,-1,-1,-1,-1,-1,-1,-1,-1,-1,-1,-1,-1,-1,-1,-1,-1,-1,-1,-1,-1],"split_conditions":[5E0,7.267864E4,2.4972256E4,6E0,7.970604E4,2.1E1,1.2E1,3E0,3E0,1.9E1,1.4E1,7.520434E3,5.417048E3,3.5546366E5,5.058932E4,3E0,8.418921E3,1.2E1,4E0,1.5E1,7.447834E4,2E0,4.757044E5,9E0,2.451883E4,2.2E1,7.000043E3,5E0,5.8564134E-2,4.9194156E4,5.312866E4,-5.63839E-3,7.6735914E-3,-7.257534E-2,8.650601E-3,5.237313E-3,-1.0709151E-3,-8.502163E-3,4.3907404E-4,1.3950544E-2,-2.324892E-3,-6.3288696E-3,3.673372E-2,1.3338356E-2,-3.3637774E-3,7.092667E-3,-2.0693703E-2,-5.3709447E-2,-2.1209018E-2,-1.0409896E-2,-4.3169502E-2,-1.7981017E-2,-5.992482E-2,2.6183104E-2,3.9553433E-3,-4.2735293E-4,-8.489376E-3,-1.8278249E-4,-4.4409845E-2,3.4269985E-2,3.3648647E-3],"split_indices":[0,2,2,1,2,1,1,1,0,1,1,2,2,2,2,0,2,1,0,1,2,1,2,1,2,1,2,1,0,2,2,0,0,0,0,0,0,0,0,0,0,0,0,0,0,0,0,0,0,0,0,0,0,0,0,0,0,0,0,0,0],"split_type":[0,0,0,0,0,0,0,0,0,0,0,0,0,0,0,0,0,0,0,0,0,0,0,0,0,0,0,0,0,0,0,0,0,0,0,0,0,0,0,0,0,0,0,0,0,0,0,0,0,0,0,0,0,0,0,0,0,0,0,0,0],"sum_hessian":[1.0723617E4,7.957974E3,2.7656426E3,5.8763257E3,2.0816484E3,1.3114385E3,1.454204E3,1.7001682E3,4.1761577E3,2.7973502E2,1.8019135E3,1.1095847E3,2.0185373E2,6.246933E2,8.2951074E2,7.8999243E2,9.101757E2,2.5638184E3,1.6123391E3,2.2844824E2,5.128677E1,8.6520447E2,9.3670905E2,6.604903E1,1.0435356E3,5.8888836E0,1.9596484E2,6.2170276E2,2.9905543E0,4.2312085E2,4.0638986E2,4.4348587E2,3.4650656E2,3.8550928E0,9.063206E2,1.00288275E3,1.5609357E3,7.8150146E2,8.3083765E2,1.6284653E2,6.5601715E1,1.2814796E1,3.8471973E1,1.373713E2,7.278331E2,9.1920917E2,1.7499907E1,2.5941427E1,4.0107597E1,1.0256702E3,1.7865475E1,3.0529208E0,2.8359628E0,2.124623E1,1.7471861E2,2.601699E2,3.6153287E2,4.1266412E2,1.045673E1,2.6754505E1,3.7963538E2],"tree_param":{"num_deleted":"0","num_feature":"3","num_nodes":"61","size_leaf_vector":"1"}},{"base_weights":[-3.167948E-4,3.339443E-2,-9.739369E-2,1.600948E-2,8.244118E-2,-2.5968924E-1,-5.224568E-2,8.5534036E-2,-1.2296977E-2,1.5744838E-1,3.1340208E-2,-4.757183E-1,-1.5308036E-1,-1.4348486E-1,2.4098549E-2,3.8589493E-3,1.5638484E-1,2.65617E-2,-7.407647E-2,1.2906079E-1,6.194132E-1,-1.0271159E-1,9.616863E-2,-4.5194723E-2,-6.171735E-1,-1.380729E-1,-9.0554225E-1,-3.846841E-1,-9.737907E-2,-1.342721E-1,8.10805E-2,-5.3562946E-3,7.2968537E-3,-7.024614E-2,8.225484E-3,4.9772947E-3,-1.0173674E-3,-8.082493E-3,4.1714372E-4,4.6201646E-3,1.3234168E-2,3.8779844E-2,-4.226848E-2,-9.6006267E-4,-2.3057638E-2,5.772753E-3,-2.6923358E-2,-1.2051809E-2,2.2605745E-2,-5.7126082E-2,-2.6735857E-2,-3.3271518E-3,-1.3194396E-2,-5.7710618E-2,-1.9580264E-2,-4.1716415E-3,-3.5165794E-2,-8.064925E-3,2.1450606E-3,4.8451792E-4,-2.1043986E-2,1.8723506E-2,2.0600841E-3],"categories":[],"categories_nodes":[],"categories_segments":[],"categories_sizes":[],"default_left":[0,0,0,0,0,0,0,0,0,0,0,0,0,0,0,0,0,0,0,0,0,0,0,0,0,0,0,0,0,0,0,0,0,0,0,0,0,0,0,0,0,0,0,0,0,0,0,0,0,0,0,0,0,0,0,0,0,0,0,0,0,0,0],"id":23,"left_children":[1,3,5,7,9,11,13,15,17,19,21,23,25,27,29,31,33,35,37,39,41,43,45,47,49,51,53,55,57,59,61,-1,-1,-1,-1,-1,-1,-1,-1,-1,-1,-1,-1,-1,-1,-1,-1,-1,-1,-1,-1,-1,-1,-1,-1,-1,-1,-1,-1,-1,-1,-1,-1],"loss_changes":[3.508081E1,6.7830715E0,2.0232023E1,1.1564238E1,7.9751425E0,1.3770729E1,1.5069561E1,9.837905E0,1.0028224E1,1.0980446E1,1.0782225E1,1.2039047E1,4.4365873E0,1.0921852E1,1.0645493E1,1.248517E1,1.1779783E1,8.782099E0,1.1642716E1,3.932105E0,1.17656765E1,1.2100573E1,1.0295057E1,4.9866295E0,5.8462067E0,3.5573268E0,5.345125E-1,1.5089144E1,7.4373903E0,1.2885316E1,1.013147E1,0E0,0E0,0E0,0E0,0E0,0E0,0E0,0E0,0E0,0E0,0E0,0E0,0E0,0E0,0E0,0E0,0E0,0E0,0E0,0E0,0E0,0E0,0E0,0E0,0E0,0E0,0E0,0E0,0E0,0E0,0E0,0E0],"parents":[2147483647,0,0,1,1,2,2,3,3,4,4,5,5,6,6,7,7,8,8,9,9,10,10,11,11,12,12,13,13,14,14,15,15,16,16,17,17,18,18,19,19,20,20,21,21,22,22,23,23,24,24,25,25,26,26,27,27,28,28,29,29,30,30],"right_children":[2,4,6,8,10,12,14,16,18,20,22,24,26,28,30,32,34,36,38,40,42,44,46,48,50,52,54,56,58,60,62,-1,-1,-1,-1,-1,-1,-1,-1,-1,-1,-1,-1,-1,-1,-1,-1,-1,-1,-1,-1,-1,-1,-1,-1,-1,-1,-1,-1,-1,-1,-1,-1],"split_conditions":[5E0,7.267864E4,1.4411016E4,6E0,1.0114935E5,8E0,6E0,3E0,3E0,2.2E1,1.2716853E5,2E0,1.4202709E4,1.8519576E4,8E0,3E0,8.418921E3,1.2E1,4E0,4E0,4E0,4E0,2.2E1,1.2601072E4,7.520434E3,6E0,1.7E1,1.632269E4,1.6E1,5E0,1.8519576E4,-5.3562946E-3,7.2968537E-3,-7.024614E-2,8.225484E-3,4.9772947E-3,-1.0173674E-3,-8.082493E-3,4.1714372E-4,4.6201646E-3,1.3234168E-2,3.8779844E-2,-4.226848E-2,-9.6006267E-4,-2.3057638E-2,5.772753E-3,-2.6923358E-2,-1.2051809E-2,2.2605745E-2,-5.7126082E-2,-2.6735857E-2,-3.3271518E-3,-1.3194396E-2,-5.7710618E-2,-1.9580264E-2,-4.1716415E-3,-3.5165794E-2,-8.064925E-3,2.1450606E-3,4.8451792E-4,-2.1043986E-2,1.8723506E-2,2.0600841E-3],"split_indices":[0,2,2,1,2,1,0,1,0,1,2,1,2,2,1,0,2,1,0,0,0,0,1,2,2,0,1,2,1,1,2,0,0,0,0,0,0,0,0,0,0,0,0,0,0,0,0,0,0,0,0,0,0,0,0,0,0,0,0,0,0,0,0],"split_type":[0,0,0,0,0,0,0,0,0,0,0,0,0,0,0,0,0,0,0,0,0,0,0,0,0,0,0,0,0,0,0,0,0,0,0,0,0,0,0,0,0,0,0,0,0,0,0,0,0,0,0,0,0,0,0,0,0,0,0,0,0,0,0],"sum_hessian":[1.0717621E4,7.9555933E3,2.7620278E3,5.874621E3,2.0809722E3,6.000935E2,2.1619343E3,1.6991798E3,4.1754414E3,8.4239874E2,1.2385735E3,1.9714415E2,4.0294934E2,9.8448926E2,1.1774451E3,7.897869E2,9.093928E2,2.5635588E3,1.6118824E3,7.948357E2,4.7563026E1,4.035438E2,8.3502966E2,4.908175E1,1.4806241E2,3.9623022E2,6.7191157E0,1.5680923E2,8.2768005E2,3.1119116E2,8.662539E2,4.435513E2,3.4623566E2,3.8178542E0,9.0557495E2,1.0025708E3,1.5609882E3,7.810397E2,8.308428E2,6.2703534E2,1.6780037E2,4.3405396E1,4.157631E0,3.281454E2,7.53984E1,8.111957E2,2.3833971E1,3.5584015E1,1.349773E1,1.8342455E1,1.2971996E2,2.535869E2,1.4264333E2,3.6885664E0,3.0305495E0,8.125157E1,7.555767E1,5.6849335E2,2.591867E2,2.0778658E2,1.034046E2,1.0265176E2,7.636022E2],"tree_param":{"num_deleted":"0","num_feature":"3","num_nodes":"63","size_leaf_vector":"1"}},{"base_weights":[-3.3429117E-4,-1.7164439E-1,1.7169816E-2,-7.013356E-2,-2.4793045E-1,6.006551E-2,-2.1700956E-2,1.0349431E-1,-2.8110206E-1,-4.9393183E-1,-1.307296E-1,-1.9905321E-1,7.0450686E-2,-4.1687734E-2,1.9307268E-1,-1.444422E-1,3.4941554E-1,-7.274731E-2,-1.1741526E0,-2.9619625E-1,-8.1809485E-1,6.303822E-2,-1.8728514E-1,5.0458055E-2,-3.421971E-1,-3.0541664E-1,7.362964E-2,-6.107065E-2,1.3427363E-1,2.4232347E-1,-4.0672272E-1,-7.620953E-2,-3.987866E-3,2.9194841E-2,-6.976598E-3,-2.056979E-2,7.53413E-3,-2.304685E-2,-6.9813296E-2,-1.0006499E-2,-7.000693E-2,-6.765795E-2,-2.7425861E-2,-1.4323753E-2,1.0377827E-2,-1.4071851E-2,-1.1030034E-3,-1.707413E-2,2.6240552E-2,2.4812719E-2,-1.964311E-2,-2.7459553E-2,1.0763158E-2,3.3207413E-2,3.339028E-3,2.318532E-3,-5.2032E-3,1.4851729E-2,2.730887E-3,2.2386448E-2,7.7746348E-3,-7.335257E-2,-1.3172902E-2],"categories":[],"categories_nodes":[],"categories_segments":[],"categories_sizes":[],"default_left":[0,0,0,0,0,0,0,0,0,0,0,0,0,0,0,0,0,0,0,0,0,0,0,0,0,0,0,0,0,0,0,0,0,0,0,0,0,0,0,0,0,0,0,0,0,0,0,0,0,0,0,0,0,0,0,0,0,0,0,0,0,0,0],"id":24,"left_children":[1,3,5,7,9,11,13,15,17,19,21,23,25,27,29,31,33,35,37,39,41,43,45,47,49,51,53,55,57,59,61,-1,-1,-1,-1,-1,-1,-1,-1,-1,-1,-1,-1,-1,-1,-1,-1,-1,-1,-1,-1,-1,-1,-1,-1,-1,-1,-1,-1,-1,-1,-1,-1],"loss_changes":[3.21251E1,7.6736393E0,1.6208485E1,1.5689523E1,1.6272762E1,1.2449318E1,2.1900549E1,1.43943615E1,3.5878372E1,1.1455032E1,4.2326074E0,6.3865743E0,5.3321686E0,1.5924451E1,1.2930237E1,1.0396659E1,1.3655654E1,1.2000483E1,5.1380653E0,1.1906851E1,9.148949E0,4.4926505E0,4.6356277E0,1.2428082E1,5.0142946E0,4.8733063E0,1.7780952E1,1.94255E1,5.9911413E0,7.101019E0,4.677286E0,0E0,0E0,0E0,0E0,0E0,0E0,0E0,0E0,0E0,0E0,0E0,0E0,0E0,0E0,0E0,0E0,0E0,0E0,0E0,0E0,0E0,0E0,0E0,0E0,0E0,0E0,0E0,0E0,0E0,0E0,0E0,0E0],"parents":[2147483647,0,0,1,1,2,2,3,3,4,4,5,5,6,6,7,7,8,8,9,9,10,10,11,11,12,12,13,13,14,14,15,15,16,16,17,17,18,18,19,19,20,20,21,21,22,22,23,23,24,24,25,25,26,26,27,27,28,28,29,29,30,30],"right_children":[2,4,6,8,10,12,14,16,18,20,22,24,26,28,30,32,34,36,38,40,42,44,46,48,50,52,54,56,58,60,62,-1,-1,-1,-1,-1,-1,-1,-1,-1,-1,-1,-1,-1,-1,-1,-1,-1,-1,-1,-1,-1,-1,-1,-1,-1,-1,-1,-1,-1,-1,-1,-1],"split_conditions":[1.3977817E4,5E0,3E0,1.1E1,8E0,1E0,2.2E1,3E0,4E0,5E0,1.2E1,1E0,1.4616677E4,1.2445779E5,1.0912678E5,1E0,1.2601072E4,2E0,2E1,1.3386402E4,6E0,9.891733E3,2.1E1,7.167495E4,1.7318795E4,1.9E1,1.5324474E4,6E0,4E0,4E0,1.2137923E5,-7.620953E-2,-3.987866E-3,2.9194841E-2,-6.976598E-3,-2.056979E-2,7.53413E-3,-2.304685E-2,-6.9813296E-2,-1.0006499E-2,-7.000693E-2,-6.765795E-2,-2.7425861E-2,-1.4323753E-2,1.0377827E-2,-1.4071851E-2,-1.1030034E-3,-1.707413E-2,2.6240552E-2,2.4812719E-2,-1.964311E-2,-2.7459553E-2,1.0763158E-2,3.3207413E-2,3.339028E-3,2.318532E-3,-5.2032E-3,1.4851729E-2,2.730887E-3,2.2386448E-2,7.7746348E-3,-7.335257E-2,-1.3172902E-2],"split_indices":[2,0,0,1,1,1,1,0,0,1,1,0,2,2,2,1,2,0,1,2,1,2,1,2,2,1,2,1,0,0,2,0,0,0,0,0,0,0,0,0,0,0,0,0,0,0,0,0,0,0,0,0,0,0,0,0,0,0,0,0,0,0,0],"split_type":[0,0,0,0,0,0,0,0,0,0,0,0,0,0,0,0,0,0,0,0,0,0,0,0,0,0,0,0,0,0,0,0,0,0,0,0,0,0,0,0,0,0,0,0,0,0,0,0,0,0,0,0,0,0,0,0,0,0,0,0,0,0,0],"sum_hessian":[1.0711274E4,9.921773E2,9.719097E3,4.2653003E2,5.656473E2,4.62008E3,5.099017E3,2.3425046E2,1.9227957E2,1.814901E2,3.8415717E2,1.7733203E2,4.442748E3,4.6656396E3,4.333773E2,1.1685276E2,1.173977E2,1.567826E2,3.549698E1,1.13916275E2,6.757383E1,8.676671E1,2.9739044E2,6.4883095E1,1.1244894E2,3.646273E1,4.406285E3,4.2032827E3,4.6235718E2,4.010426E2,3.233468E1,4.222488E0,1.1263027E2,7.9214935E1,3.8182766E1,6.1987717E1,9.4794876E1,9.159772E0,2.6337208E1,1.0588346E2,8.032809E0,2.1292473E1,4.6281357E1,2.509439E1,6.167232E1,1.8899193E2,1.0839852E2,3.5681156E1,2.9201935E1,5.906588E0,1.0654234E2,2.4797947E1,1.1664782E1,4.9419647E1,4.3568657E3,1.2012512E3,3.0020315E3,1.5102948E2,3.113277E2,1.17924934E2,2.8311768E2,2.7489607E0,2.9585718E1],"tree_param":{"num_deleted":"0","num_feature":"3","num_nodes":"63","size_leaf_vector":"1"}},{"base_weights":[-3.5698316E-4,-1.6398682E-1,1.631402E-2,-6.719151E-2,-2.3685047E-1,5.7083257E-2,-2.0628413E-2,9.819427E-2,-2.6860982E-1,-4.7461677E-1,-1.24428384E-1,-1.11583754E-1,7.157227E-2,-3.960849E-2,1.8328422E-1,-1.3789563E-1,3.329151E-1,-6.925415E-2,-1.1353954E0,-2.833781E-1,-7.920005E-1,5.980855E-2,-1.7831974E-1,1.1916995E-1,-2.4481069E-1,8.2459494E-2,-7.438619E-2,-5.802993E-2,1.2762515E-1,2.302746E-1,-3.8902304E-1,-7.350608E-2,-3.788976E-3,2.7857793E-2,-6.6318186E-3,-1.30566275E-2,1.4850934E-2,-2.209147E-2,-6.7736804E-2,-9.541049E-3,-6.8204425E-2,-6.629976E-2,-2.6377264E-2,-1.3683485E-2,9.848298E-3,-1.3411845E-2,-1.0484563E-3,-7.726295E-2,8.433557E-3,-1.6258543E-2,2.6483402E-2,3.0293234E-3,8.06948E-3,-2.535078E-2,-4.751378E-4,2.8377767E-3,-4.722412E-3,1.412073E-2,2.5949858E-3,2.1248434E-2,7.39114E-3,-7.0734136E-2,-1.2535611E-2],"categories":[],"categories_nodes":[],"categories_segments":[],"categories_sizes":[],"default_left":[0,0,0,0,0,0,0,0,0,0,